<?xml version="1.0"?>
<opencv_storage>
<cascade>
  <stageType>BOOST</stageType>
  <featureType>HAAR</featureType>
  <height>24</height>
  <width>24</width>
  <stageParams>
    <boostType>GAB</boostType>
    <minHitRate>9.9500000476837158e-01</minHitRate>
    <maxFalseAlarm>5.0000000000000000e-01</maxFalseAlarm>
    <weightTrimRate>9.4999998807907104e-01</weightTrimRate>
    <maxDepth>1</maxDepth>
    <maxWeakCount>100</maxWeakCount></stageParams>
  <featureParams>
    <maxCatCount>0</maxCatCount>
    <featSize>1</featSize>
    <mode>BASIC</mode></featureParams>
  <stageNum>25</stageNum>
  <stages>
    <!-- stage 0 -->
    <_>
      <maxWeakCount>9</maxWeakCount>
      <stageThreshold>-1.2252217531204224e+00</stageThreshold>
      <weakClassifiers>
        <_>
          <internalNodes>
            0 -1 164 -6.8887837231159210e-02</internalNodes>
          <leafValues>
            3.8461539149284363e-01 -4.9295774102210999e-01</leafValues></_>
        <_>
          <internalNodes>
            0 -1 199 -7.1230744943022728e-03</internalNodes>
          <leafValues>
            7.8525072336196899e-01 -2.1764145791530609e-01</leafValues></_>
        <_>
          <internalNodes>
            0 -1 200 6.9777402095496655e-03</internalNodes>
          <leafValues>
            -2.3047606647014618e-01 7.6121032238006592e-01</leafValues></_>
        <_>
          <internalNodes>
            0 -1 143 -3.0691748857498169e-01</internalNodes>
          <leafValues>
            -8.3239734172821045e-01 2.3209203779697418e-01</leafValues></_>
        <_>
          <internalNodes>
            0 -1 176 4.2262375354766846e-02</internalNodes>
          <leafValues>
            2.2131645679473877e-01 -7.8962320089340210e-01</leafValues></_>
        <_>
          <internalNodes>
            0 -1 257 -5.3584538400173187e-03</internalNodes>
          <leafValues>
            7.2354018688201904e-01 -2.4964344501495361e-01</leafValues></_>
        <_>
          <internalNodes>
            0 -1 276 -5.6726885959506035e-03</internalNodes>
          <leafValues>
            6.5033900737762451e-01 -1.7577242851257324e-01</leafValues></_>
        <_>
          <internalNodes>
            0 -1 273 -6.8601863458752632e-03</internalNodes>
          <leafValues>
            6.9198083877563477e-01 -1.2341979891061783e-01</leafValues></_>
        <_>
          <internalNodes>
            0 -1 875 -4.2839469388127327e-03</internalNodes>
          <leafValues>
            8.3207702636718750e-01 -1.1591631919145584e-01</leafValues></_></weakClassifiers></_>
    <!-- stage 1 -->
    <_>
      <maxWeakCount>24</maxWeakCount>
      <stageThreshold>-1.4498336315155029e+00</stageThreshold>
      <weakClassifiers>
        <_>
          <internalNodes>
            0 -1 522 -7.5883716344833374e-02</internalNodes>
          <leafValues>
            3.3949190378189087e-01 -4.6741154789924622e-01</leafValues></_>
        <_>
          <internalNodes>
            0 -1 499 4.5675807632505894e-04</internalNodes>
          <leafValues>
            1.4053532481193542e-01 -6.4249986410140991e-01</leafValues></_>
        <_>
          <internalNodes>
            0 -1 756 2.2288630134426057e-04</internalNodes>
          <leafValues>
            2.2458720207214355e-01 -4.0409028530120850e-01</leafValues></_>
        <_>
          <internalNodes>
            0 -1 499 -3.7513903225772083e-04</internalNodes>
          <leafValues>
            -4.7895896434783936e-01 1.9682791829109192e-01</leafValues></_>
        <_>
          <internalNodes>
            0 -1 904 3.9677390304859728e-05</internalNodes>
          <leafValues>
            2.0448170602321625e-01 -4.0986937284469604e-01</leafValues></_>
        <_>
          <internalNodes>
            0 -1 410 -2.1863896399736404e-02</internalNodes>
          <leafValues>
            5.0175309181213379e-01 -1.7517234385013580e-01</leafValues></_>
        <_>
          <internalNodes>
            0 -1 80 -1.2252104468643665e-02</internalNodes>
          <leafValues>
            4.9491882324218750e-01 -1.6547718644142151e-01</leafValues></_>
        <_>
          <internalNodes>
            0 -1 472 -1.3543730601668358e-02</internalNodes>
          <leafValues>
            4.6900463104248047e-01 -1.4666658639907837e-01</leafValues></_>
        <_>
          <internalNodes>
            0 -1 518 -1.1753924190998077e-02</internalNodes>
          <leafValues>
            4.9209868907928467e-01 -1.3418790698051453e-01</leafValues></_>
        <_>
          <internalNodes>
            0 -1 414 1.3016730081290007e-03</internalNodes>
          <leafValues>
            1.3537757098674774e-01 -4.5932278037071228e-01</leafValues></_>
        <_>
          <internalNodes>
            0 -1 271 -2.5803692638874054e-02</internalNodes>
          <leafValues>
            4.7192975878715515e-01 -1.4371106028556824e-01</leafValues></_>
        <_>
          <internalNodes>
            0 -1 738 4.7500133514404297e-03</internalNodes>
          <leafValues>
            -1.3205385208129883e-01 5.0281316041946411e-01</leafValues></_>
        <_>
          <internalNodes>
            0 -1 292 5.1846925634890795e-04</internalNodes>
          <leafValues>
            1.6224527359008789e-01 -4.4466578960418701e-01</leafValues></_>
        <_>
          <internalNodes>
            0 -1 531 -4.9591907300055027e-03</internalNodes>
          <leafValues>
            4.5373630523681641e-01 -1.6582615673542023e-01</leafValues></_>
        <_>
          <internalNodes>
            0 -1 334 6.4594918512739241e-05</internalNodes>
          <leafValues>
            2.1460819244384766e-01 -3.2562893629074097e-01</leafValues></_>
        <_>
          <internalNodes>
            0 -1 734 -1.2232189998030663e-02</internalNodes>
          <leafValues>
            3.9385879039764404e-01 -1.6862261295318604e-01</leafValues></_>
        <_>
          <internalNodes>
            0 -1 886 1.0633617639541626e-03</internalNodes>
          <leafValues>
            1.1650306731462479e-01 -6.3848441839218140e-01</leafValues></_>
        <_>
          <internalNodes>
            0 -1 682 2.4888731539249420e-02</internalNodes>
          <leafValues>
            -1.2696540355682373e-01 5.9129452705383301e-01</leafValues></_>
        <_>
          <internalNodes>
            0 -1 607 -1.0037899948656559e-02</internalNodes>
          <leafValues>
            4.1568061709403992e-01 -1.6331145167350769e-01</leafValues></_>
        <_>
          <internalNodes>
            0 -1 172 -8.0920599400997162e-02</internalNodes>
          <leafValues>
            7.2977584600448608e-01 -8.5415713489055634e-02</leafValues></_>
        <_>
          <internalNodes>
            0 -1 302 -5.7046297937631607e-02</internalNodes>
          <leafValues>
            8.4254688024520874e-01 -5.3951311856508255e-02</leafValues></_>
        <_>
          <internalNodes>
            0 -1 554 -1.8249785527586937e-02</internalNodes>
          <leafValues>
            5.7598245143890381e-01 -8.2584336400032043e-02</leafValues></_>
        <_>
          <internalNodes>
            0 -1 357 -2.6592457666993141e-02</internalNodes>
          <leafValues>
            7.0807498693466187e-01 -7.0113994181156158e-02</leafValues></_>
        <_>
          <internalNodes>
            0 -1 722 1.0743649909272790e-03</internalNodes>
          <leafValues>
            1.0032295435667038e-01 -6.9670939445495605e-01</leafValues></_></weakClassifiers></_>
    <!-- stage 2 -->
    <_>
      <maxWeakCount>23</maxWeakCount>
      <stageThreshold>-1.3291916847229004e+00</stageThreshold>
      <weakClassifiers>
        <_>
          <internalNodes>
            0 -1 886 -2.8749241027981043e-04</internalNodes>
          <leafValues>
            -7.4112737178802490e-01 5.6900152915856871e-17</leafValues></_>
        <_>
          <internalNodes>
            0 -1 867 -3.4360308200120926e-04</internalNodes>
          <leafValues>
            -6.4498889446258545e-01 1.4092072844505310e-01</leafValues></_>
        <_>
          <internalNodes>
            0 -1 867 3.9040774572640657e-04</internalNodes>
          <leafValues>
            2.2157572209835052e-01 -5.6076228618621826e-01</leafValues></_>
        <_>
          <internalNodes>
            0 -1 482 -3.8006938993930817e-02</internalNodes>
          <leafValues>
            4.9476215243339539e-01 -2.2996748983860016e-01</leafValues></_>
        <_>
          <internalNodes>
            0 -1 105 -1.4589420752599835e-03</internalNodes>
          <leafValues>
            -6.2699508666992188e-01 1.3310317695140839e-01</leafValues></_>
        <_>
          <internalNodes>
            0 -1 105 5.7708518579602242e-04</internalNodes>
          <leafValues>
            1.9358798861503601e-01 -4.8379677534103394e-01</leafValues></_>
        <_>
          <internalNodes>
            0 -1 886 9.9379823950584978e-05</internalNodes>
          <leafValues>
            2.0200382173061371e-01 -3.9708346128463745e-01</leafValues></_>
        <_>
          <internalNodes>
            0 -1 545 6.9843038916587830e-02</internalNodes>
          <leafValues>
            9.0650729835033417e-02 -8.4162294864654541e-01</leafValues></_>
        <_>
          <internalNodes>
            0 -1 728 -3.1005382537841797e-02</internalNodes>
          <leafValues>
            6.5352481603622437e-01 -1.3192814588546753e-01</leafValues></_>
        <_>
          <internalNodes>
            0 -1 805 -7.5407205149531364e-03</internalNodes>
          <leafValues>
            3.8332134485244751e-01 -1.5746550261974335e-01</leafValues></_>
        <_>
          <internalNodes>
            0 -1 807 8.1232041120529175e-03</internalNodes>
          <leafValues>
            -1.5817159414291382e-01 4.5881500840187073e-01</leafValues></_>
        <_>
          <internalNodes>
            0 -1 753 3.4828210482373834e-04</internalNodes>
          <leafValues>
            1.6194990277290344e-01 -4.4283187389373779e-01</leafValues></_>
        <_>
          <internalNodes>
            0 -1 753 -4.6833555097691715e-04</internalNodes>
          <leafValues>
            -4.4080132246017456e-01 1.6939797997474670e-01</leafValues></_>
        <_>
          <internalNodes>
            0 -1 379 -3.5098986700177193e-03</internalNodes>
          <leafValues>
            -6.9365251064300537e-01 7.2403766214847565e-02</leafValues></_>
        <_>
          <internalNodes>
            0 -1 633 -2.5307978503406048e-03</internalNodes>
          <leafValues>
            3.5798338055610657e-01 -1.9127146899700165e-01</leafValues></_>
        <_>
          <internalNodes>
            0 -1 8 -3.4155792673118412e-04</internalNodes>
          <leafValues>
            -3.8409504294395447e-01 1.5599371492862701e-01</leafValues></_>
        <_>
          <internalNodes>
            0 -1 360 -1.4822287485003471e-03</internalNodes>
          <leafValues>
            3.7758135795593262e-01 -1.6256466507911682e-01</leafValues></_>
        <_>
          <internalNodes>
            0 -1 450 1.4152883086353540e-03</internalNodes>
          <leafValues>
            7.7793799340724945e-02 -8.4567588567733765e-01</leafValues></_>
        <_>
          <internalNodes>
            0 -1 350 -3.3747136592864990e-02</internalNodes>
          <leafValues>
            6.7303454875946045e-01 -9.6077077090740204e-02</leafValues></_>
        <_>
          <internalNodes>
            0 -1 223 6.0639597475528717e-02</internalNodes>
          <leafValues>
            -7.2082459926605225e-02 6.6726148128509521e-01</leafValues></_>
        <_>
          <internalNodes>
            0 -1 221 8.8833183050155640e-02</internalNodes>
          <leafValues>
            -6.0610622167587280e-02 8.1064707040786743e-01</leafValues></_>
        <_>
          <internalNodes>
            0 -1 185 -8.6678611114621162e-04</internalNodes>
          <leafValues>
            -5.4907149076461792e-01 1.1436543613672256e-01</leafValues></_>
        <_>
          <internalNodes>
            0 -1 645 3.6396537907421589e-03</internalNodes>
          <leafValues>
            -1.5799149870872498e-01 4.0186020731925964e-01</leafValues></_></weakClassifiers></_>
    <!-- stage 3 -->
    <_>
      <maxWeakCount>28</maxWeakCount>
      <stageThreshold>-1.4632995128631592e+00</stageThreshold>
      <weakClassifiers>
        <_>
          <internalNodes>
            0 -1 231 -5.1150890067219734e-04</internalNodes>
          <leafValues>
            -6.8000000715255737e-01 -3.1007751822471619e-02</leafValues></_>
        <_>
          <internalNodes>
            0 -1 290 5.0502619706094265e-04</internalNodes>
          <leafValues>
            1.1129704862833023e-01 -7.2464114427566528e-01</leafValues></_>
        <_>
          <internalNodes>
            0 -1 409 7.7245354652404785e-02</internalNodes>
          <leafValues>
            -2.0139062404632568e-01 4.4139429926872253e-01</leafValues></_>
        <_>
          <internalNodes>
            0 -1 451 -4.1014965972863138e-04</internalNodes>
          <leafValues>
            -4.7977966070175171e-01 1.5085808932781219e-01</leafValues></_>
        <_>
          <internalNodes>
            0 -1 451 3.0677800532430410e-04</internalNodes>
          <leafValues>
            2.1208369731903076e-01 -4.5842385292053223e-01</leafValues></_>
        <_>
          <internalNodes>
            0 -1 430 2.5475665926933289e-02</internalNodes>
          <leafValues>
            -1.6999037563800812e-01 4.3626654148101807e-01</leafValues></_>
        <_>
          <internalNodes>
            0 -1 476 -1.2665819376707077e-02</internalNodes>
          <leafValues>
            3.6688211560249329e-01 -1.8541097640991211e-01</leafValues></_>
        <_>
          <internalNodes>
            0 -1 542 3.6263209767639637e-03</internalNodes>
          <leafValues>
            1.0169208049774170e-01 -6.9645494222640991e-01</leafValues></_>
        <_>
          <internalNodes>
            0 -1 56 -1.4939701184630394e-02</internalNodes>
          <leafValues>
            5.1354128122329712e-01 -1.0575157403945923e-01</leafValues></_>
        <_>
          <internalNodes>
            0 -1 76 8.8887512683868408e-03</internalNodes>
          <leafValues>
            -1.5035557746887207e-01 4.4255772233009338e-01</leafValues></_>
        <_>
          <internalNodes>
            0 -1 500 5.1941775018349290e-04</internalNodes>
          <leafValues>
            1.4763987064361572e-01 -4.1687077283859253e-01</leafValues></_>
        <_>
          <internalNodes>
            0 -1 887 7.0992609835229814e-05</internalNodes>
          <leafValues>
            1.9427537918090820e-01 -2.9776191711425781e-01</leafValues></_>
        <_>
          <internalNodes>
            0 -1 1 -4.9789657350629568e-04</internalNodes>
          <leafValues>
            -4.8818707466125488e-01 1.2528358399868011e-01</leafValues></_>
        <_>
          <internalNodes>
            0 -1 408 -1.1866854876279831e-01</internalNodes>
          <leafValues>
            7.5964534282684326e-01 -8.0840691924095154e-02</leafValues></_>
        <_>
          <internalNodes>
            0 -1 77 -9.9515542387962341e-03</internalNodes>
          <leafValues>
            3.5574495792388916e-01 -1.4738410711288452e-01</leafValues></_>
        <_>
          <internalNodes>
            0 -1 847 3.1674146885052323e-04</internalNodes>
          <leafValues>
            1.2642285227775574e-01 -4.2121651768684387e-01</leafValues></_>
        <_>
          <internalNodes>
            0 -1 624 3.7848436832427979e-01</internalNodes>
          <leafValues>
            4.7146510332822800e-02 -9.5612025260925293e-01</leafValues></_>
        <_>
          <internalNodes>
            0 -1 847 -2.9412191361188889e-04</internalNodes>
          <leafValues>
            -3.6838605999946594e-01 1.2272309511899948e-01</leafValues></_>
        <_>
          <internalNodes>
            0 -1 523 -1.8495372496545315e-03</internalNodes>
          <leafValues>
            4.3373245000839233e-01 -1.3603456318378448e-01</leafValues></_>
        <_>
          <internalNodes>
            0 -1 188 -4.1637076064944267e-03</internalNodes>
          <leafValues>
            -3.4652873873710632e-01 1.4337889850139618e-01</leafValues></_>
        <_>
          <internalNodes>
            0 -1 510 -5.1621063612401485e-03</internalNodes>
          <leafValues>
            2.7831456065177917e-01 -1.8182364106178284e-01</leafValues></_>
        <_>
          <internalNodes>
            0 -1 946 3.3511233050376177e-04</internalNodes>
          <leafValues>
            1.4219956099987030e-01 -4.0275517106056213e-01</leafValues></_>
        <_>
          <internalNodes>
            0 -1 269 -1.7655955161899328e-03</internalNodes>
          <leafValues>
            2.9247659444808960e-01 -1.8809925019741058e-01</leafValues></_>
        <_>
          <internalNodes>
            0 -1 332 3.1075876904651523e-04</internalNodes>
          <leafValues>
            1.3696083426475525e-01 -3.8358125090599060e-01</leafValues></_>
        <_>
          <internalNodes>
            0 -1 562 1.5124753117561340e-03</internalNodes>
          <leafValues>
            -1.8272744119167328e-01 3.0396911501884460e-01</leafValues></_>
        <_>
          <internalNodes>
            0 -1 879 1.2695174664258957e-02</internalNodes>
          <leafValues>
            -1.1051756143569946e-01 4.3702411651611328e-01</leafValues></_>
        <_>
          <internalNodes>
            0 -1 945 4.8066372983157635e-05</internalNodes>
          <leafValues>
            2.0860038697719574e-01 -2.5207582116127014e-01</leafValues></_>
        <_>
          <internalNodes>
            0 -1 697 7.9256296157836914e-04</internalNodes>
          <leafValues>
            1.0012131184339523e-01 -5.7508605718612671e-01</leafValues></_></weakClassifiers></_>
    <!-- stage 4 -->
    <_>
      <maxWeakCount>28</maxWeakCount>
      <stageThreshold>-1.3059999942779541e+00</stageThreshold>
      <weakClassifiers>
        <_>
          <internalNodes>
            0 -1 496 5.1256980746984482e-02</internalNodes>
          <leafValues>
            -3.9273357391357422e-01 2.8205129504203796e-01</leafValues></_>
        <_>
          <internalNodes>
            0 -1 119 1.6381402383558452e-04</internalNodes>
          <leafValues>
            1.7397682368755341e-01 -4.2931130528450012e-01</leafValues></_>
        <_>
          <internalNodes>
            0 -1 697 -1.7337792087346315e-04</internalNodes>
          <leafValues>
            -3.8990572094917297e-01 1.5308922529220581e-01</leafValues></_>
        <_>
          <internalNodes>
            0 -1 724 -1.1908949818462133e-03</internalNodes>
          <leafValues>
            -5.7585239410400391e-01 1.2753480672836304e-01</leafValues></_>
        <_>
          <internalNodes>
            0 -1 427 -7.3333252221345901e-03</internalNodes>
          <leafValues>
            5.7165372371673584e-01 -1.3728193938732147e-01</leafValues></_>
        <_>
          <internalNodes>
            0 -1 126 -1.9818704458884895e-04</internalNodes>
          <leafValues>
            -4.6319827437400818e-01 1.3232098519802094e-01</leafValues></_>
        <_>
          <internalNodes>
            0 -1 119 -1.6941709327511489e-04</internalNodes>
          <leafValues>
            -3.2249271869659424e-01 1.7806440591812134e-01</leafValues></_>
        <_>
          <internalNodes>
            0 -1 63 -4.5239636674523354e-03</internalNodes>
          <leafValues>
            4.4073712825775146e-01 -1.5449021756649017e-01</leafValues></_>
        <_>
          <internalNodes>
            0 -1 41 3.6514028906822205e-03</internalNodes>
          <leafValues>
            -1.4806924760341644e-01 4.0849265456199646e-01</leafValues></_>
        <_>
          <internalNodes>
            0 -1 726 8.9270812168251723e-05</internalNodes>
          <leafValues>
            2.0549193024635315e-01 -3.1045371294021606e-01</leafValues></_>
        <_>
          <internalNodes>
            0 -1 754 -2.4766547721810639e-04</internalNodes>
          <leafValues>
            -3.5342574119567871e-01 1.9420851767063141e-01</leafValues></_>
        <_>
          <internalNodes>
            0 -1 603 -2.2194776684045792e-03</internalNodes>
          <leafValues>
            2.9674896597862244e-01 -1.8207636475563049e-01</leafValues></_>
        <_>
          <internalNodes>
            0 -1 237 -5.8488165959715843e-03</internalNodes>
          <leafValues>
            -6.6505002975463867e-01 9.2940658330917358e-02</leafValues></_>
        <_>
          <internalNodes>
            0 -1 641 -2.7650455012917519e-02</internalNodes>
          <leafValues>
            3.0479300022125244e-01 -1.8277178704738617e-01</leafValues></_>
        <_>
          <internalNodes>
            0 -1 392 -2.8204317204654217e-03</internalNodes>
          <leafValues>
            3.1737154722213745e-01 -1.4363580942153931e-01</leafValues></_>
        <_>
          <internalNodes>
            0 -1 885 -3.2057613134384155e-04</internalNodes>
          <leafValues>
            -3.7935239076614380e-01 1.3987250626087189e-01</leafValues></_>
        <_>
          <internalNodes>
            0 -1 452 -2.4898352567106485e-03</internalNodes>
          <leafValues>
            -5.8522212505340576e-01 8.2623355090618134e-02</leafValues></_>
        <_>
          <internalNodes>
            0 -1 403 3.3469761256128550e-03</internalNodes>
          <leafValues>
            -1.2067285180091858e-01 5.7071036100387573e-01</leafValues></_>
        <_>
          <internalNodes>
            0 -1 540 -1.0186093859374523e-03</internalNodes>
          <leafValues>
            -4.4036471843719482e-01 1.3373120129108429e-01</leafValues></_>
        <_>
          <internalNodes>
            0 -1 837 -1.9327246118336916e-03</internalNodes>
          <leafValues>
            4.8768007755279541e-01 -1.4005939662456512e-01</leafValues></_>
        <_>
          <internalNodes>
            0 -1 836 1.0547171346843243e-02</internalNodes>
          <leafValues>
            -1.5389190614223480e-01 3.1441009044647217e-01</leafValues></_>
        <_>
          <internalNodes>
            0 -1 895 -1.1584695428609848e-02</internalNodes>
          <leafValues>
            7.0254588127136230e-01 -6.1910718679428101e-02</leafValues></_>
        <_>
          <internalNodes>
            0 -1 904 7.0790876634418964e-05</internalNodes>
          <leafValues>
            1.4611169695854187e-01 -3.4658160805702209e-01</leafValues></_>
        <_>
          <internalNodes>
            0 -1 677 9.3407480744645000e-04</internalNodes>
          <leafValues>
            -1.1235450953245163e-01 4.6747112274169922e-01</leafValues></_>
        <_>
          <internalNodes>
            0 -1 451 -6.1453483067452908e-04</internalNodes>
          <leafValues>
            -5.0745528936386108e-01 1.0061325132846832e-01</leafValues></_>
        <_>
          <internalNodes>
            0 -1 373 4.0622144297230989e-05</internalNodes>
          <leafValues>
            1.9961875677108765e-01 -2.5063371658325195e-01</leafValues></_>
        <_>
          <internalNodes>
            0 -1 307 -5.9699737466871738e-03</internalNodes>
          <leafValues>
            4.2319363355636597e-01 -1.2977567315101624e-01</leafValues></_>
        <_>
          <internalNodes>
            0 -1 364 -1.0228285100311041e-03</internalNodes>
          <leafValues>
            3.2488018274307251e-01 -1.6310547292232513e-01</leafValues></_></weakClassifiers></_>
    <!-- stage 5 -->
    <_>
      <maxWeakCount>21</maxWeakCount>
      <stageThreshold>-1.3126875162124634e+00</stageThreshold>
      <weakClassifiers>
        <_>
          <internalNodes>
            0 -1 278 1.3519974052906036e-01</internalNodes>
          <leafValues>
            -3.9383560419082642e-01 3.0973452329635620e-01</leafValues></_>
        <_>
          <internalNodes>
            0 -1 417 -8.5180759197100997e-04</internalNodes>
          <leafValues>
            -5.5606508255004883e-01 1.5266485512256622e-01</leafValues></_>
        <_>
          <internalNodes>
            0 -1 450 4.7794290003366768e-04</internalNodes>
          <leafValues>
            1.1983037739992142e-01 -6.3952398300170898e-01</leafValues></_>
        <_>
          <internalNodes>
            0 -1 381 1.7272096592932940e-03</internalNodes>
          <leafValues>
            1.6914828121662140e-01 -4.4125831127166748e-01</leafValues></_>
        <_>
          <internalNodes>
            0 -1 708 -1.0116208577528596e-03</internalNodes>
          <leafValues>
            7.1154958009719849e-01 -9.2869512736797333e-02</leafValues></_>
        <_>
          <internalNodes>
            0 -1 729 5.0943791866302490e-02</internalNodes>
          <leafValues>
            1.2060889601707458e-01 -5.7087236642837524e-01</leafValues></_>
        <_>
          <internalNodes>
            0 -1 433 -1.2572167906910181e-03</internalNodes>
          <leafValues>
            7.8089982271194458e-01 -9.7271874547004700e-02</leafValues></_>
        <_>
          <internalNodes>
            0 -1 787 -4.8245012294501066e-04</internalNodes>
          <leafValues>
            -6.3735425472259521e-01 1.2723711133003235e-01</leafValues></_>
        <_>
          <internalNodes>
            0 -1 676 -2.3339947219938040e-03</internalNodes>
          <leafValues>
            6.7951905727386475e-01 -1.1210733652114868e-01</leafValues></_>
        <_>
          <internalNodes>
            0 -1 137 -6.6291779279708862e-02</internalNodes>
          <leafValues>
            4.2931193113327026e-01 -1.6640509665012360e-01</leafValues></_>
        <_>
          <internalNodes>
            0 -1 283 -1.4217908494174480e-02</internalNodes>
          <leafValues>
            4.1449657082557678e-01 -1.5747807919979095e-01</leafValues></_>
        <_>
          <internalNodes>
            0 -1 868 -7.0602784398943186e-04</internalNodes>
          <leafValues>
            -4.9342009425163269e-01 1.5492688119411469e-01</leafValues></_>
        <_>
          <internalNodes>
            0 -1 866 5.5703916586935520e-04</internalNodes>
          <leafValues>
            1.1667522042989731e-01 -5.5716234445571899e-01</leafValues></_>
        <_>
          <internalNodes>
            0 -1 798 1.2090054806321859e-03</internalNodes>
          <leafValues>
            -1.1027791351079941e-01 7.1163743734359741e-01</leafValues></_>
        <_>
          <internalNodes>
            0 -1 771 6.8901954218745232e-03</internalNodes>
          <leafValues>
            -9.0934798121452332e-02 6.4039671421051025e-01</leafValues></_>
        <_>
          <internalNodes>
            0 -1 657 3.1252328772097826e-03</internalNodes>
          <leafValues>
            1.0028256475925446e-01 -6.6227746009826660e-01</leafValues></_>
        <_>
          <internalNodes>
            0 -1 438 -2.7645649388432503e-03</internalNodes>
          <leafValues>
            8.5937088727951050e-01 -8.8544391095638275e-02</leafValues></_>
        <_>
          <internalNodes>
            0 -1 683 -2.1812871564179659e-03</internalNodes>
          <leafValues>
            7.3268204927444458e-01 -7.1148030459880829e-02</leafValues></_>
        <_>
          <internalNodes>
            0 -1 656 -1.5476632397621870e-03</internalNodes>
          <leafValues>
            -5.6196290254592896e-01 1.3196010887622833e-01</leafValues></_>
        <_>
          <internalNodes>
            0 -1 604 -9.1069098562002182e-04</internalNodes>
          <leafValues>
            5.8805978298187256e-01 -1.3025471568107605e-01</leafValues></_>
        <_>
          <internalNodes>
            0 -1 27 -1.1815443634986877e-01</internalNodes>
          <leafValues>
            -4.1674607992172241e-01 1.6115379333496094e-01</leafValues></_></weakClassifiers></_>
    <!-- stage 6 -->
    <_>
      <maxWeakCount>28</maxWeakCount>
      <stageThreshold>-1.2199933528900146e+00</stageThreshold>
      <weakClassifiers>
        <_>
          <internalNodes>
            0 -1 613 1.6259929165244102e-02</internalNodes>
          <leafValues>
            -5.0311851501464844e-01 2.3669724166393280e-01</leafValues></_>
        <_>
          <internalNodes>
            0 -1 618 1.5003452426753938e-04</internalNodes>
          <leafValues>
            1.6405978798866272e-01 -3.7656861543655396e-01</leafValues></_>
        <_>
          <internalNodes>
            0 -1 582 -2.6219934807159007e-04</internalNodes>
          <leafValues>
            -3.3826225996017456e-01 1.9198957085609436e-01</leafValues></_>
        <_>
          <internalNodes>
            0 -1 610 1.3969551073387265e-03</internalNodes>
          <leafValues>
            -1.1622492969036102e-01 4.8478770256042480e-01</leafValues></_>
        <_>
          <internalNodes>
            0 -1 727 -2.1915568504482508e-04</internalNodes>
          <leafValues>
            -3.0565249919891357e-01 1.9693723320960999e-01</leafValues></_>
        <_>
          <internalNodes>
            0 -1 226 -3.2079085707664490e-02</internalNodes>
          <leafValues>
            9.6067285537719727e-01 -5.5843677371740341e-02</leafValues></_>
        <_>
          <internalNodes>
            0 -1 432 -1.3695757836103439e-02</internalNodes>
          <leafValues>
            6.1987996101379395e-01 -7.2631672024726868e-02</leafValues></_>
        <_>
          <internalNodes>
            0 -1 90 -1.9232459366321564e-02</internalNodes>
          <leafValues>
            5.5166167020797729e-01 -7.5890608131885529e-02</leafValues></_>
        <_>
          <internalNodes>
            0 -1 532 -4.8786159604787827e-03</internalNodes>
          <leafValues>
            5.0079840421676636e-01 -1.0899329930543900e-01</leafValues></_>
        <_>
          <internalNodes>
            0 -1 23 -3.3282138407230377e-02</internalNodes>
          <leafValues>
            -5.5440074205398560e-01 1.2148937582969666e-01</leafValues></_>
        <_>
          <internalNodes>
            0 -1 888 -1.4419225044548512e-02</internalNodes>
          <leafValues>
            6.8052631616592407e-01 -1.0223580896854401e-01</leafValues></_>
        <_>
          <internalNodes>
            0 -1 358 -1.6139072831720114e-03</internalNodes>
          <leafValues>
            3.8360846042633057e-01 -1.3235610723495483e-01</leafValues></_>
        <_>
          <internalNodes>
            0 -1 848 -6.4743531402200460e-04</internalNodes>
          <leafValues>
            -3.7577697634696960e-01 1.4441497623920441e-01</leafValues></_>
        <_>
          <internalNodes>
            0 -1 571 -4.2767869308590889e-03</internalNodes>
          <leafValues>
            4.7715613245964050e-01 -1.1578992754220963e-01</leafValues></_>
        <_>
          <internalNodes>
            0 -1 937 -1.5056701377034187e-03</internalNodes>
          <leafValues>
            -3.7265992164611816e-01 1.4424474537372589e-01</leafValues></_>
        <_>
          <internalNodes>
            0 -1 639 1.4955170918256044e-03</internalNodes>
          <leafValues>
            -1.1869139969348907e-01 4.8198822140693665e-01</leafValues></_>
        <_>
          <internalNodes>
            0 -1 61 7.7984958887100220e-02</internalNodes>
          <leafValues>
            8.2631632685661316e-02 -7.1313154697418213e-01</leafValues></_>
        <_>
          <internalNodes>
            0 -1 328 2.9403805732727051e-02</internalNodes>
          <leafValues>
            -7.2916291654109955e-02 6.8586891889572144e-01</leafValues></_>
        <_>
          <internalNodes>
            0 -1 617 1.8375454237684608e-03</internalNodes>
          <leafValues>
            1.1402970552444458e-01 -5.0727874040603638e-01</leafValues></_>
        <_>
          <internalNodes>
            0 -1 606 -2.2459602914750576e-03</internalNodes>
          <leafValues>
            3.7587758898735046e-01 -1.4567777514457703e-01</leafValues></_>
        <_>
          <internalNodes>
            0 -1 706 2.7585579082369804e-03</internalNodes>
          <leafValues>
            -8.6825996637344360e-02 5.1523286104202271e-01</leafValues></_>
        <_>
          <internalNodes>
            0 -1 74 -1.2183497101068497e-01</internalNodes>
          <leafValues>
            -6.3369327783584595e-01 8.0520309507846832e-02</leafValues></_>
        <_>
          <internalNodes>
            0 -1 920 -8.1206830218434334e-03</internalNodes>
          <leafValues>
            -3.3434686064720154e-01 1.4489971101284027e-01</leafValues></_>
        <_>
          <internalNodes>
            0 -1 596 2.1061436273157597e-03</internalNodes>
          <leafValues>
            2.1132951974868774e-01 -2.4495846033096313e-01</leafValues></_>
        <_>
          <internalNodes>
            0 -1 81 -4.5762537047266960e-03</internalNodes>
          <leafValues>
            4.5596793293952942e-01 -1.1089068651199341e-01</leafValues></_>
        <_>
          <internalNodes>
            0 -1 765 1.2791644781827927e-02</internalNodes>
          <leafValues>
            -7.1371816098690033e-02 6.5467667579650879e-01</leafValues></_>
        <_>
          <internalNodes>
            0 -1 325 -5.5576148442924023e-03</internalNodes>
          <leafValues>
            3.7999194860458374e-01 -1.2660244107246399e-01</leafValues></_>
        <_>
          <internalNodes>
            0 -1 88 -1.9443235942162573e-04</internalNodes>
          <leafValues>
            -2.3936922848224640e-01 2.0137043297290802e-01</leafValues></_></weakClassifiers></_>
    <!-- stage 7 -->
    <_>
      <maxWeakCount>25</maxWeakCount>
      <stageThreshold>-1.2697045803070068e+00</stageThreshold>
      <weakClassifiers>
        <_>
          <internalNodes>
            0 -1 537 4.3945334851741791e-02</internalNodes>
          <leafValues>
            -4.0492957830429077e-01 2.8301885724067688e-01</leafValues></_>
        <_>
          <internalNodes>
            0 -1 99 1.0454438626766205e-01</internalNodes>
          <leafValues>
            -1.0629650950431824e-01 6.1131900548934937e-01</leafValues></_>
        <_>
          <internalNodes>
            0 -1 714 -1.1273092241026461e-05</internalNodes>
          <leafValues>
            2.9198831319808960e-01 -2.0236404240131378e-01</leafValues></_>
        <_>
          <internalNodes>
            0 -1 62 1.8269929289817810e-01</internalNodes>
          <leafValues>
            9.0868428349494934e-02 -5.7939177751541138e-01</leafValues></_>
        <_>
          <internalNodes>
            0 -1 141 2.0662155747413635e-01</internalNodes>
          <leafValues>
            1.2209558486938477e-01 -5.9898716211318970e-01</leafValues></_>
        <_>
          <internalNodes>
            0 -1 907 -2.7287129312753677e-02</internalNodes>
          <leafValues>
            -4.5863237977027893e-01 1.4071375131607056e-01</leafValues></_>
        <_>
          <internalNodes>
            0 -1 179 -1.0460048215463758e-03</internalNodes>
          <leafValues>
            -5.1179659366607666e-01 1.0573747009038925e-01</leafValues></_>
        <_>
          <internalNodes>
            0 -1 923 -1.1754881124943495e-03</internalNodes>
          <leafValues>
            -3.1321966648101807e-01 1.3998189568519592e-01</leafValues></_>
        <_>
          <internalNodes>
            0 -1 75 -6.6122673451900482e-03</internalNodes>
          <leafValues>
            5.5216491222381592e-01 -9.6285827457904816e-02</leafValues></_>
        <_>
          <internalNodes>
            0 -1 881 -8.4749422967433929e-05</internalNodes>
          <leafValues>
            2.8021880984306335e-01 -1.8650095164775848e-01</leafValues></_>
        <_>
          <internalNodes>
            0 -1 686 -1.2826232239603996e-02</internalNodes>
          <leafValues>
            3.3363881707191467e-01 -1.7558825016021729e-01</leafValues></_>
        <_>
          <internalNodes>
            0 -1 182 9.1052777133882046e-04</internalNodes>
          <leafValues>
            1.1016116291284561e-01 -5.8784461021423340e-01</leafValues></_>
        <_>
          <internalNodes>
            0 -1 585 -2.1193045377731323e-01</internalNodes>
          <leafValues>
            -6.8270158767700195e-01 7.0141360163688660e-02</leafValues></_>
        <_>
          <internalNodes>
            0 -1 92 4.2785357683897018e-02</internalNodes>
          <leafValues>
            4.8734597861766815e-02 -8.8133490085601807e-01</leafValues></_>
        <_>
          <internalNodes>
            0 -1 693 -2.9358736355789006e-05</internalNodes>
          <leafValues>
            2.6046437025070190e-01 -2.0610508322715759e-01</leafValues></_>
        <_>
          <internalNodes>
            0 -1 377 5.0480887293815613e-03</internalNodes>
          <leafValues>
            9.3721210956573486e-02 -6.0412871837615967e-01</leafValues></_>
        <_>
          <internalNodes>
            0 -1 542 -2.9073243495076895e-03</internalNodes>
          <leafValues>
            -6.4182192087173462e-01 7.5224362313747406e-02</leafValues></_>
        <_>
          <internalNodes>
            0 -1 424 -3.2408623956143856e-03</internalNodes>
          <leafValues>
            3.9956241846084595e-01 -1.5372286736965179e-01</leafValues></_>
        <_>
          <internalNodes>
            0 -1 284 5.8099612593650818e-02</internalNodes>
          <leafValues>
            -8.4232017397880554e-02 6.1857676506042480e-01</leafValues></_>
        <_>
          <internalNodes>
            0 -1 921 1.0224554687738419e-02</internalNodes>
          <leafValues>
            1.3507080078125000e-01 -4.0402957797050476e-01</leafValues></_>
        <_>
          <internalNodes>
            0 -1 108 -9.3132362235337496e-04</internalNodes>
          <leafValues>
            -5.9958249330520630e-01 7.6549664139747620e-02</leafValues></_>
        <_>
          <internalNodes>
            0 -1 12 -5.3004026412963867e-02</internalNodes>
          <leafValues>
            -7.7846151590347290e-01 5.4710615426301956e-02</leafValues></_>
        <_>
          <internalNodes>
            0 -1 843 6.8261513661127537e-05</internalNodes>
          <leafValues>
            -1.9115799665451050e-01 2.9852032661437988e-01</leafValues></_>
        <_>
          <internalNodes>
            0 -1 928 -1.2394746299833059e-03</internalNodes>
          <leafValues>
            -2.9317215085029602e-01 1.9306805729866028e-01</leafValues></_>
        <_>
          <internalNodes>
            0 -1 638 3.2083457335829735e-03</internalNodes>
          <leafValues>
            -1.4338347315788269e-01 3.8815343379974365e-01</leafValues></_></weakClassifiers></_>
    <!-- stage 8 -->
    <_>
      <maxWeakCount>19</maxWeakCount>
      <stageThreshold>-1.2801291942596436e+00</stageThreshold>
      <weakClassifiers>
        <_>
          <internalNodes>
            0 -1 867 -6.5344886388629675e-04</internalNodes>
          <leafValues>
            -8.3018869161605835e-01 -7.6534904539585114e-02</leafValues></_>
        <_>
          <internalNodes>
            0 -1 541 1.2789680622518063e-03</internalNodes>
          <leafValues>
            1.2675027549266815e-01 -6.1845642328262329e-01</leafValues></_>
        <_>
          <internalNodes>
            0 -1 541 -6.2862224876880646e-04</internalNodes>
          <leafValues>
            -5.2288025617599487e-01 2.3369082808494568e-01</leafValues></_>
        <_>
          <internalNodes>
            0 -1 452 -2.7659116312861443e-03</internalNodes>
          <leafValues>
            -6.4118444919586182e-01 9.4176545739173889e-02</leafValues></_>
        <_>
          <internalNodes>
            0 -1 224 -2.3576539009809494e-02</internalNodes>
          <leafValues>
            7.7801859378814697e-01 -9.0313173830509186e-02</leafValues></_>
        <_>
          <internalNodes>
            0 -1 109 1.0767758358269930e-03</internalNodes>
          <leafValues>
            1.7306374013423920e-01 -4.2759904265403748e-01</leafValues></_>
        <_>
          <internalNodes>
            0 -1 372 1.8257830291986465e-02</internalNodes>
          <leafValues>
            -1.3081635534763336e-01 7.6278227567672729e-01</leafValues></_>
        <_>
          <internalNodes>
            0 -1 254 1.4059471897780895e-02</internalNodes>
          <leafValues>
            -8.6985461413860321e-02 6.4739078283309937e-01</leafValues></_>
        <_>
          <internalNodes>
            0 -1 115 -1.0320928413420916e-03</internalNodes>
          <leafValues>
            -6.6193771362304688e-01 1.2550631165504456e-01</leafValues></_>
        <_>
          <internalNodes>
            0 -1 316 1.7575275152921677e-02</internalNodes>
          <leafValues>
            -1.1590834707021713e-01 7.6141405105590820e-01</leafValues></_>
        <_>
          <internalNodes>
            0 -1 648 -4.6550100669264793e-03</internalNodes>
          <leafValues>
            5.0510358810424805e-01 -1.0998138785362244e-01</leafValues></_>
        <_>
          <internalNodes>
            0 -1 127 7.8367989044636488e-04</internalNodes>
          <leafValues>
            1.1966781318187714e-01 -5.7797336578369141e-01</leafValues></_>
        <_>
          <internalNodes>
            0 -1 465 1.3547059893608093e-01</internalNodes>
          <leafValues>
            6.3269786536693573e-02 -9.3662029504776001e-01</leafValues></_>
        <_>
          <internalNodes>
            0 -1 227 1.1167863849550486e-03</internalNodes>
          <leafValues>
            9.9957108497619629e-02 -6.2205642461776733e-01</leafValues></_>
        <_>
          <internalNodes>
            0 -1 347 -5.1474559307098389e-01</internalNodes>
          <leafValues>
            -9.0071827173233032e-01 7.1170546114444733e-02</leafValues></_>
        <_>
          <internalNodes>
            0 -1 35 -8.9830165961757302e-04</internalNodes>
          <leafValues>
            -4.8301944136619568e-01 1.0768177360296249e-01</leafValues></_>
        <_>
          <internalNodes>
            0 -1 4 6.7566968500614166e-03</internalNodes>
          <leafValues>
            9.6682175993919373e-02 -5.7200437784194946e-01</leafValues></_>
        <_>
          <internalNodes>
            0 -1 688 3.7287776649463922e-05</internalNodes>
          <leafValues>
            -2.1098116040229797e-01 2.7294370532035828e-01</leafValues></_>
        <_>
          <internalNodes>
            0 -1 721 -6.2855437863618135e-04</internalNodes>
          <leafValues>
            -5.8705210685729980e-01 1.0895678400993347e-01</leafValues></_></weakClassifiers></_>
    <!-- stage 9 -->
    <_>
      <maxWeakCount>33</maxWeakCount>
      <stageThreshold>-1.4912818670272827e+00</stageThreshold>
      <weakClassifiers>
        <_>
          <internalNodes>
            0 -1 494 6.1584101058542728e-03</internalNodes>
          <leafValues>
            -4.4320297241210938e-01 2.7944573760032654e-01</leafValues></_>
        <_>
          <internalNodes>
            0 -1 429 -1.5377998352050781e-02</internalNodes>
          <leafValues>
            4.9834164977073669e-01 -1.9776271283626556e-01</leafValues></_>
        <_>
          <internalNodes>
            0 -1 473 1.1783816851675510e-02</internalNodes>
          <leafValues>
            -2.1674585342407227e-01 4.6668887138366699e-01</leafValues></_>
        <_>
          <internalNodes>
            0 -1 416 -8.9727994054555893e-03</internalNodes>
          <leafValues>
            6.4512145519256592e-01 -7.6186172664165497e-02</leafValues></_>
        <_>
          <internalNodes>
            0 -1 435 4.2181881144642830e-03</internalNodes>
          <leafValues>
            -1.4158362150192261e-01 5.1973342895507813e-01</leafValues></_>
        <_>
          <internalNodes>
            0 -1 26 1.5871345996856689e-01</internalNodes>
          <leafValues>
            1.4810532331466675e-01 -5.2948951721191406e-01</leafValues></_>
        <_>
          <internalNodes>
            0 -1 670 5.9738913550972939e-03</internalNodes>
          <leafValues>
            -1.4169816672801971e-01 5.3020113706588745e-01</leafValues></_>
        <_>
          <internalNodes>
            0 -1 894 4.5803347602486610e-03</internalNodes>
          <leafValues>
            -9.3465633690357208e-02 5.4757171869277954e-01</leafValues></_>
        <_>
          <internalNodes>
            0 -1 893 -4.1963653638958931e-03</internalNodes>
          <leafValues>
            4.5226508378982544e-01 -1.3872303068637848e-01</leafValues></_>
        <_>
          <internalNodes>
            0 -1 487 -3.0990489758551121e-03</internalNodes>
          <leafValues>
            4.2451167106628418e-01 -1.3414791226387024e-01</leafValues></_>
        <_>
          <internalNodes>
            0 -1 263 6.4347222447395325e-02</internalNodes>
          <leafValues>
            1.5120443701744080e-01 -4.2889982461929321e-01</leafValues></_>
        <_>
          <internalNodes>
            0 -1 97 -6.1989933252334595e-02</internalNodes>
          <leafValues>
            -4.2651870846748352e-01 1.3887198269367218e-01</leafValues></_>
        <_>
          <internalNodes>
            0 -1 337 -3.7584174424409866e-02</internalNodes>
          <leafValues>
            3.7102085351943970e-01 -1.4954212307929993e-01</leafValues></_>
        <_>
          <internalNodes>
            0 -1 129 6.5677287057042122e-03</internalNodes>
          <leafValues>
            1.0808393359184265e-01 -4.4450461864471436e-01</leafValues></_>
        <_>
          <internalNodes>
            0 -1 565 -1.5204739756882191e-03</internalNodes>
          <leafValues>
            4.2109969258308411e-01 -1.2647181749343872e-01</leafValues></_>
        <_>
          <internalNodes>
            0 -1 715 2.5185351260006428e-03</internalNodes>
          <leafValues>
            -1.3104692101478577e-01 4.1744819283485413e-01</leafValues></_>
        <_>
          <internalNodes>
            0 -1 181 -3.6061732098460197e-03</internalNodes>
          <leafValues>
            -3.4354960918426514e-01 1.5021976828575134e-01</leafValues></_>
        <_>
          <internalNodes>
            0 -1 448 -7.1258842945098877e-02</internalNodes>
          <leafValues>
            8.3661097288131714e-01 -6.0155224055051804e-02</leafValues></_>
        <_>
          <internalNodes>
            0 -1 719 2.3881655652076006e-03</internalNodes>
          <leafValues>
            -1.0247753560543060e-01 4.4519928097724915e-01</leafValues></_>
        <_>
          <internalNodes>
            0 -1 340 -7.9766744747757912e-03</internalNodes>
          <leafValues>
            4.7223246097564697e-01 -9.6057146787643433e-02</leafValues></_>
        <_>
          <internalNodes>
            0 -1 189 2.4357645306736231e-03</internalNodes>
          <leafValues>
            1.6258104145526886e-01 -3.5236501693725586e-01</leafValues></_>
        <_>
          <internalNodes>
            0 -1 266 1.0153017938137054e-02</internalNodes>
          <leafValues>
            -9.2773839831352234e-02 5.4578655958175659e-01</leafValues></_>
        <_>
          <internalNodes>
            0 -1 215 -7.3810694739222527e-03</internalNodes>
          <leafValues>
            7.3992824554443359e-01 -6.1014849692583084e-02</leafValues></_>
        <_>
          <internalNodes>
            0 -1 161 2.0519413053989410e-02</internalNodes>
          <leafValues>
            -9.7049728035926819e-02 5.1708859205245972e-01</leafValues></_>
        <_>
          <internalNodes>
            0 -1 909 2.5321301072835922e-02</internalNodes>
          <leafValues>
            8.6893297731876373e-02 -6.1655300855636597e-01</leafValues></_>
        <_>
          <internalNodes>
            0 -1 124 1.7206784104928374e-04</internalNodes>
          <leafValues>
            9.9463425576686859e-02 -3.9518201351165771e-01</leafValues></_>
        <_>
          <internalNodes>
            0 -1 616 8.3000445738434792e-03</internalNodes>
          <leafValues>
            -1.1592917889356613e-01 4.5587566494941711e-01</leafValues></_>
        <_>
          <internalNodes>
            0 -1 134 -5.9219100512564182e-04</internalNodes>
          <leafValues>
            -2.7045926451683044e-01 1.5809002518653870e-01</leafValues></_>
        <_>
          <internalNodes>
            0 -1 394 -7.5460029765963554e-03</internalNodes>
          <leafValues>
            7.3979598283767700e-01 -6.0365591198205948e-02</leafValues></_>
        <_>
          <internalNodes>
            0 -1 439 -2.6871990412473679e-03</internalNodes>
          <leafValues>
            4.6106225252151489e-01 -8.1444717943668365e-02</leafValues></_>
        <_>
          <internalNodes>
            0 -1 480 -4.3586455285549164e-02</internalNodes>
          <leafValues>
            -7.3133379220962524e-01 5.8062717318534851e-02</leafValues></_>
        <_>
          <internalNodes>
            0 -1 156 5.0949761644005775e-03</internalNodes>
          <leafValues>
            -9.6507526934146881e-02 4.5708203315734863e-01</leafValues></_>
        <_>
          <internalNodes>
            0 -1 698 -1.2738318182528019e-03</internalNodes>
          <leafValues>
            -4.1289237141609192e-01 1.0149443149566650e-01</leafValues></_></weakClassifiers></_>
    <!-- stage 10 -->
    <_>
      <maxWeakCount>31</maxWeakCount>
      <stageThreshold>-1.2073762416839600e+00</stageThreshold>
      <weakClassifiers>
        <_>
          <internalNodes>
            0 -1 169 8.8338106870651245e-02</internalNodes>
          <leafValues>
            -4.1869157552719116e-01 2.1281464397907257e-01</leafValues></_>
        <_>
          <internalNodes>
            0 -1 231 -7.9867913154885173e-04</internalNodes>
          <leafValues>
            -5.1531392335891724e-01 1.1508694291114807e-01</leafValues></_>
        <_>
          <internalNodes>
            0 -1 918 1.3813250698149204e-03</internalNodes>
          <leafValues>
            1.5388637781143188e-01 -3.8324865698814392e-01</leafValues></_>
        <_>
          <internalNodes>
            0 -1 183 3.3295867033302784e-03</internalNodes>
          <leafValues>
            1.3551206886768341e-01 -4.9470236897468567e-01</leafValues></_>
        <_>
          <internalNodes>
            0 -1 919 -1.6840167809277773e-03</internalNodes>
          <leafValues>
            -3.1401741504669189e-01 1.9528111815452576e-01</leafValues></_>
        <_>
          <internalNodes>
            0 -1 371 -1.6808407381176949e-02</internalNodes>
          <leafValues>
            7.3493719100952148e-01 -7.1488112211227417e-02</leafValues></_>
        <_>
          <internalNodes>
            0 -1 437 1.6631731763482094e-02</internalNodes>
          <leafValues>
            -8.0258034169673920e-02 6.0716056823730469e-01</leafValues></_>
        <_>
          <internalNodes>
            0 -1 755 -7.7819440048187971e-04</internalNodes>
          <leafValues>
            -3.5219493508338928e-01 1.2930600345134735e-01</leafValues></_>
        <_>
          <internalNodes>
            0 -1 620 -3.0691572465002537e-04</internalNodes>
          <leafValues>
            -2.9359370470046997e-01 1.5515001118183136e-01</leafValues></_>
        <_>
          <internalNodes>
            0 -1 242 -2.7366164140403271e-03</internalNodes>
          <leafValues>
            -3.5758024454116821e-01 1.6524864733219147e-01</leafValues></_>
        <_>
          <internalNodes>
            0 -1 42 -3.6928772926330566e-02</internalNodes>
          <leafValues>
            4.8091802000999451e-01 -1.1348262429237366e-01</leafValues></_>
        <_>
          <internalNodes>
            0 -1 803 2.3088036687113345e-04</internalNodes>
          <leafValues>
            -1.4260257780551910e-01 2.9914781451225281e-01</leafValues></_>
        <_>
          <internalNodes>
            0 -1 9 -3.0582724139094353e-04</internalNodes>
          <leafValues>
            -2.4859750270843506e-01 1.7764079570770264e-01</leafValues></_>
        <_>
          <internalNodes>
            0 -1 210 1.3495697930920869e-04</internalNodes>
          <leafValues>
            -1.8068799376487732e-01 2.2721032798290253e-01</leafValues></_>
        <_>
          <internalNodes>
            0 -1 146 4.5749740675091743e-03</internalNodes>
          <leafValues>
            -1.3826590776443481e-01 3.7440013885498047e-01</leafValues></_>
        <_>
          <internalNodes>
            0 -1 498 1.5904176980257034e-03</internalNodes>
          <leafValues>
            8.8002048432826996e-02 -5.8890235424041748e-01</leafValues></_>
        <_>
          <internalNodes>
            0 -1 629 -5.3112901747226715e-02</internalNodes>
          <leafValues>
            7.0351928472518921e-01 -6.6504098474979401e-02</leafValues></_>
        <_>
          <internalNodes>
            0 -1 845 -1.1640070006251335e-03</internalNodes>
          <leafValues>
            -4.3209818005561829e-01 9.7056262195110321e-02</leafValues></_>
        <_>
          <internalNodes>
            0 -1 819 3.8891810923814774e-02</internalNodes>
          <leafValues>
            -1.1027265340089798e-01 3.8006180524826050e-01</leafValues></_>
        <_>
          <internalNodes>
            0 -1 905 2.5094218552112579e-02</internalNodes>
          <leafValues>
            4.3950561434030533e-02 -8.5591673851013184e-01</leafValues></_>
        <_>
          <internalNodes>
            0 -1 36 -7.5582612771540880e-04</internalNodes>
          <leafValues>
            -3.4778186678886414e-01 1.0616865009069443e-01</leafValues></_>
        <_>
          <internalNodes>
            0 -1 860 4.3857269920408726e-03</internalNodes>
          <leafValues>
            -7.6775953173637390e-02 5.3790193796157837e-01</leafValues></_>
        <_>
          <internalNodes>
            0 -1 859 3.8894910831004381e-03</internalNodes>
          <leafValues>
            -1.1197749525308609e-01 4.0311366319656372e-01</leafValues></_>
        <_>
          <internalNodes>
            0 -1 338 -2.8706749435514212e-03</internalNodes>
          <leafValues>
            -4.5622998476028442e-01 9.9502675235271454e-02</leafValues></_>
        <_>
          <internalNodes>
            0 -1 111 -8.8801153469830751e-04</internalNodes>
          <leafValues>
            -3.1412580609321594e-01 1.2580649554729462e-01</leafValues></_>
        <_>
          <internalNodes>
            0 -1 489 2.2170054726302624e-03</internalNodes>
          <leafValues>
            -1.3890233635902405e-01 3.1349727511405945e-01</leafValues></_>
        <_>
          <internalNodes>
            0 -1 535 -9.3341069296002388e-03</internalNodes>
          <leafValues>
            4.1730394959449768e-01 -9.9190339446067810e-02</leafValues></_>
        <_>
          <internalNodes>
            0 -1 938 -2.6581143029034138e-03</internalNodes>
          <leafValues>
            -5.1822161674499512e-01 9.7204208374023438e-02</leafValues></_>
        <_>
          <internalNodes>
            0 -1 191 -2.6977986097335815e-02</internalNodes>
          <leafValues>
            8.6911344528198242e-01 -5.1093280315399170e-02</leafValues></_>
        <_>
          <internalNodes>
            0 -1 240 8.3555839955806732e-03</internalNodes>
          <leafValues>
            9.0379804372787476e-02 -4.9901148676872253e-01</leafValues></_>
        <_>
          <internalNodes>
            0 -1 326 -8.3045219071209431e-05</internalNodes>
          <leafValues>
            -2.0169705152511597e-01 1.8981046974658966e-01</leafValues></_></weakClassifiers></_>
    <!-- stage 11 -->
    <_>
      <maxWeakCount>32</maxWeakCount>
      <stageThreshold>-1.1309906244277954e+00</stageThreshold>
      <weakClassifiers>
        <_>
          <internalNodes>
            0 -1 832 4.4251553714275360e-02</internalNodes>
          <leafValues>
            -3.4876295924186707e-01 3.2283464074134827e-01</leafValues></_>
        <_>
          <internalNodes>
            0 -1 70 -1.0277287103235722e-02</internalNodes>
          <leafValues>
            -4.8932906985282898e-01 9.9456064403057098e-02</leafValues></_>
        <_>
          <internalNodes>
            0 -1 184 -5.8040248404722661e-05</internalNodes>
          <leafValues>
            -3.0569845438003540e-01 1.3685861229896545e-01</leafValues></_>
        <_>
          <internalNodes>
            0 -1 96 -1.1182813905179501e-02</internalNodes>
          <leafValues>
            4.8602133989334106e-01 -7.2666645050048828e-02</leafValues></_>
        <_>
          <internalNodes>
            0 -1 928 -8.7647140026092529e-03</internalNodes>
          <leafValues>
            -4.0711823105812073e-01 8.8777810335159302e-02</leafValues></_>
        <_>
          <internalNodes>
            0 -1 567 -1.9283251836895943e-02</internalNodes>
          <leafValues>
            2.3544237017631531e-01 -1.8429090082645416e-01</leafValues></_>
        <_>
          <internalNodes>
            0 -1 935 3.6773504689335823e-04</internalNodes>
          <leafValues>
            1.1232179403305054e-01 -3.5752603411674500e-01</leafValues></_>
        <_>
          <internalNodes>
            0 -1 769 1.0540051152929664e-03</internalNodes>
          <leafValues>
            -1.1777981370687485e-01 2.9324814677238464e-01</leafValues></_>
        <_>
          <internalNodes>
            0 -1 128 -2.7065176254836842e-05</internalNodes>
          <leafValues>
            -2.9794949293136597e-01 1.3630910217761993e-01</leafValues></_>
        <_>
          <internalNodes>
            0 -1 192 -1.3821326196193695e-01</internalNodes>
          <leafValues>
            3.8684409856796265e-01 -9.7204841673374176e-02</leafValues></_>
        <_>
          <internalNodes>
            0 -1 533 -1.7136216163635254e-02</internalNodes>
          <leafValues>
            2.8520870208740234e-01 -1.6262042522430420e-01</leafValues></_>
        <_>
          <internalNodes>
            0 -1 924 -3.1069703400135040e-03</internalNodes>
          <leafValues>
            -3.5607197880744934e-01 1.2157171219587326e-01</leafValues></_>
        <_>
          <internalNodes>
            0 -1 611 4.5458003878593445e-03</internalNodes>
          <leafValues>
            -9.0437546372413635e-02 4.6390238404273987e-01</leafValues></_>
        <_>
          <internalNodes>
            0 -1 225 -1.4586658835469279e-05</internalNodes>
          <leafValues>
            -1.8857584893703461e-01 2.0114172995090485e-01</leafValues></_>
        <_>
          <internalNodes>
            0 -1 289 6.0980138368904591e-03</internalNodes>
          <leafValues>
            6.9699034094810486e-02 -6.1124145984649658e-01</leafValues></_>
        <_>
          <internalNodes>
            0 -1 331 -3.9875954389572144e-02</internalNodes>
          <leafValues>
            7.5091564655303955e-01 -5.9678345918655396e-02</leafValues></_>
        <_>
          <internalNodes>
            0 -1 804 9.9006816744804382e-03</internalNodes>
          <leafValues>
            -6.7455224692821503e-02 5.1820600032806396e-01</leafValues></_>
        <_>
          <internalNodes>
            0 -1 72 -6.5153427422046661e-02</internalNodes>
          <leafValues>
            5.2497172355651855e-01 -6.6267699003219604e-02</leafValues></_>
        <_>
          <internalNodes>
            0 -1 351 -3.3266562968492508e-03</internalNodes>
          <leafValues>
            2.9727029800415039e-01 -1.2115883827209473e-01</leafValues></_>
        <_>
          <internalNodes>
            0 -1 521 3.9760861545801163e-03</internalNodes>
          <leafValues>
            -1.2204264849424362e-01 3.2889232039451599e-01</leafValues></_>
        <_>
          <internalNodes>
            0 -1 419 5.9082731604576111e-03</internalNodes>
          <leafValues>
            6.1342094093561172e-02 -6.8133395910263062e-01</leafValues></_>
        <_>
          <internalNodes>
            0 -1 788 1.2704631080850959e-04</internalNodes>
          <leafValues>
            1.0562047362327576e-01 -3.0609560012817383e-01</leafValues></_>
        <_>
          <internalNodes>
            0 -1 861 -4.1593890637159348e-03</internalNodes>
          <leafValues>
            3.0874273180961609e-01 -1.1500480026006699e-01</leafValues></_>
        <_>
          <internalNodes>
            0 -1 788 -1.0699666017899290e-04</internalNodes>
          <leafValues>
            -2.8096655011177063e-01 1.2358745932579041e-01</leafValues></_>
        <_>
          <internalNodes>
            0 -1 397 -8.7843760848045349e-03</internalNodes>
          <leafValues>
            3.8689753413200378e-01 -8.9100547134876251e-02</leafValues></_>
        <_>
          <internalNodes>
            0 -1 519 1.9063093932345510e-03</internalNodes>
          <leafValues>
            -1.3937966525554657e-01 2.8539985418319702e-01</leafValues></_>
        <_>
          <internalNodes>
            0 -1 924 1.7326257657259703e-03</internalNodes>
          <leafValues>
            1.2580627202987671e-01 -2.7373594045639038e-01</leafValues></_>
        <_>
          <internalNodes>
            0 -1 401 6.3547829631716013e-04</internalNodes>
          <leafValues>
            1.3296051323413849e-01 -2.4534320831298828e-01</leafValues></_>
        <_>
          <internalNodes>
            0 -1 763 6.2885571969673038e-04</internalNodes>
          <leafValues>
            1.7650848627090454e-01 -2.0809292793273926e-01</leafValues></_>
        <_>
          <internalNodes>
            0 -1 270 7.4043846689164639e-04</internalNodes>
          <leafValues>
            -1.2690408527851105e-01 3.0294966697692871e-01</leafValues></_>
        <_>
          <internalNodes>
            0 -1 848 2.4046967737376690e-03</internalNodes>
          <leafValues>
            6.7549236118793488e-02 -5.2903002500534058e-01</leafValues></_>
        <_>
          <internalNodes>
            0 -1 339 -7.3012746870517731e-02</internalNodes>
          <leafValues>
            4.0287902951240540e-01 -1.0535713285207748e-01</leafValues></_></weakClassifiers></_>
    <!-- stage 12 -->
    <_>
      <maxWeakCount>100</maxWeakCount>
      <stageThreshold>-2.1787095069885254e+00</stageThreshold>
      <weakClassifiers>
        <_>
          <internalNodes>
            0 -1 569 -2.1524348994717002e-04</internalNodes>
          <leafValues>
            6.4241164922714233e-01 -6.4717346429824829e-01</leafValues></_>
        <_>
          <internalNodes>
            0 -1 319 -5.9104128740727901e-04</internalNodes>
          <leafValues>
            7.2170531749725342e-01 -4.1211169958114624e-01</leafValues></_>
        <_>
          <internalNodes>
            0 -1 665 -4.2111449874937534e-04</internalNodes>
          <leafValues>
            7.1299707889556885e-01 -3.1120112538337708e-01</leafValues></_>
        <_>
          <internalNodes>
            0 -1 493 -7.1199363446794450e-05</internalNodes>
          <leafValues>
            7.5778049230575562e-01 -2.7700597047805786e-01</leafValues></_>
        <_>
          <internalNodes>
            0 -1 578 -3.2614503288641572e-04</internalNodes>
          <leafValues>
            7.8902167081832886e-01 -2.0167291164398193e-01</leafValues></_>
        <_>
          <internalNodes>
            0 -1 391 6.6707837395370007e-03</internalNodes>
          <leafValues>
            -9.8040126264095306e-02 8.4211862087249756e-01</leafValues></_>
        <_>
          <internalNodes>
            0 -1 418 2.5982520310208201e-04</internalNodes>
          <leafValues>
            -1.2817950546741486e-01 8.7221801280975342e-01</leafValues></_>
        <_>
          <internalNodes>
            0 -1 772 -3.1800947617739439e-03</internalNodes>
          <leafValues>
            8.5396164655685425e-01 -9.3121618032455444e-02</leafValues></_>
        <_>
          <internalNodes>
            0 -1 404 -2.7241816860623658e-04</internalNodes>
          <leafValues>
            5.4609781503677368e-01 -1.3963602483272552e-01</leafValues></_>
        <_>
          <internalNodes>
            0 -1 198 -2.0328827667981386e-04</internalNodes>
          <leafValues>
            7.1493905782699585e-01 -8.1835523247718811e-02</leafValues></_>
        <_>
          <internalNodes>
            0 -1 50 1.2494818656705320e-04</internalNodes>
          <leafValues>
            2.1440176665782928e-01 -4.0396803617477417e-01</leafValues></_>
        <_>
          <internalNodes>
            0 -1 107 -3.3487679902464151e-03</internalNodes>
          <leafValues>
            5.6314057111740112e-01 -1.5601006150245667e-01</leafValues></_>
        <_>
          <internalNodes>
            0 -1 287 6.3464278355240822e-03</internalNodes>
          <leafValues>
            -6.9543153047561646e-02 8.1660306453704834e-01</leafValues></_>
        <_>
          <internalNodes>
            0 -1 57 4.9510297685628757e-05</internalNodes>
          <leafValues>
            2.1842457354068756e-01 -3.5293966531753540e-01</leafValues></_>
        <_>
          <internalNodes>
            0 -1 207 -1.9147908315062523e-03</internalNodes>
          <leafValues>
            6.6525340080261230e-01 -1.2693892419338226e-01</leafValues></_>
        <_>
          <internalNodes>
            0 -1 218 5.3729931823909283e-03</internalNodes>
          <leafValues>
            1.4594931900501251e-01 -4.1718608140945435e-01</leafValues></_>
        <_>
          <internalNodes>
            0 -1 705 -5.2746280562132597e-04</internalNodes>
          <leafValues>
            6.0684180259704590e-01 -1.1862029880285263e-01</leafValues></_>
        <_>
          <internalNodes>
            0 -1 509 1.7373837530612946e-02</internalNodes>
          <leafValues>
            1.0138706117868423e-01 -5.4576838016510010e-01</leafValues></_>
        <_>
          <internalNodes>
            0 -1 469 -2.2598356008529663e-04</internalNodes>
          <leafValues>
            5.9757572412490845e-01 -1.0748121142387390e-01</leafValues></_>
        <_>
          <internalNodes>
            0 -1 877 3.6705896491184831e-04</internalNodes>
          <leafValues>
            -6.8030618131160736e-02 6.6331762075424194e-01</leafValues></_>
        <_>
          <internalNodes>
            0 -1 6 -3.4824153408408165e-03</internalNodes>
          <leafValues>
            -6.0562586784362793e-01 1.0912910848855972e-01</leafValues></_>
        <_>
          <internalNodes>
            0 -1 301 1.6314487438648939e-03</internalNodes>
          <leafValues>
            -8.2500301301479340e-02 6.8428432941436768e-01</leafValues></_>
        <_>
          <internalNodes>
            0 -1 89 -1.3296471908688545e-02</internalNodes>
          <leafValues>
            -7.5396800041198730e-01 8.5807219147682190e-02</leafValues></_>
        <_>
          <internalNodes>
            0 -1 591 -3.6076314747333527e-02</internalNodes>
          <leafValues>
            -7.8957980871200562e-01 4.2341455817222595e-02</leafValues></_>
        <_>
          <internalNodes>
            0 -1 341 -1.1325192451477051e-01</internalNodes>
          <leafValues>
            -7.3637336492538452e-01 5.7763516902923584e-02</leafValues></_>
        <_>
          <internalNodes>
            0 -1 314 -1.7156053800135851e-03</internalNodes>
          <leafValues>
            7.1238213777542114e-01 -7.6690629124641418e-02</leafValues></_>
        <_>
          <internalNodes>
            0 -1 930 -1.0266492143273354e-02</internalNodes>
          <leafValues>
            -6.8245983123779297e-01 6.6354252398014069e-02</leafValues></_>
        <_>
          <internalNodes>
            0 -1 590 -1.9153380708303303e-04</internalNodes>
          <leafValues>
            4.8343801498413086e-01 -9.9838264286518097e-02</leafValues></_>
        <_>
          <internalNodes>
            0 -1 217 2.0021555246785283e-04</internalNodes>
          <leafValues>
            9.1196142137050629e-02 -4.1448643803596497e-01</leafValues></_>
        <_>
          <internalNodes>
            0 -1 177 1.3440554903354496e-04</internalNodes>
          <leafValues>
            -7.0511803030967712e-02 6.1636501550674438e-01</leafValues></_>
        <_>
          <internalNodes>
            0 -1 925 4.2384453990962356e-05</internalNodes>
          <leafValues>
            9.4801276922225952e-02 -3.8439059257507324e-01</leafValues></_>
        <_>
          <internalNodes>
            0 -1 862 -2.4943533935584128e-04</internalNodes>
          <leafValues>
            5.6908398866653442e-01 -7.8854419291019440e-02</leafValues></_>
        <_>
          <internalNodes>
            0 -1 750 -1.9238563254475594e-04</internalNodes>
          <leafValues>
            6.8189311027526855e-01 -4.5112837105989456e-02</leafValues></_>
        <_>
          <internalNodes>
            0 -1 543 -6.2020011246204376e-03</internalNodes>
          <leafValues>
            -4.9365237355232239e-01 7.4813075363636017e-02</leafValues></_>
        <_>
          <internalNodes>
            0 -1 53 -1.5356882940977812e-03</internalNodes>
          <leafValues>
            5.4173952341079712e-01 -5.6398838758468628e-02</leafValues></_>
        <_>
          <internalNodes>
            0 -1 40 -5.2949124947190285e-03</internalNodes>
          <leafValues>
            -7.5928157567977905e-01 4.2118337005376816e-02</leafValues></_>
        <_>
          <internalNodes>
            0 -1 742 -1.1397071648389101e-03</internalNodes>
          <leafValues>
            7.4841040372848511e-01 -3.4870304167270660e-02</leafValues></_>
        <_>
          <internalNodes>
            0 -1 478 -1.5244239941239357e-02</internalNodes>
          <leafValues>
            -6.4611428976058960e-01 4.2597595602273941e-02</leafValues></_>
        <_>
          <internalNodes>
            0 -1 370 1.0568597645033151e-04</internalNodes>
          <leafValues>
            -4.7717157751321793e-02 5.2560424804687500e-01</leafValues></_>
        <_>
          <internalNodes>
            0 -1 421 3.3551731612533331e-03</internalNodes>
          <leafValues>
            6.6424146294593811e-02 -4.7968235611915588e-01</leafValues></_>
        <_>
          <internalNodes>
            0 -1 425 7.5039407238364220e-04</internalNodes>
          <leafValues>
            -2.6744037866592407e-02 7.8709959983825684e-01</leafValues></_>
        <_>
          <internalNodes>
            0 -1 187 -1.0933263693004847e-03</internalNodes>
          <leafValues>
            -7.0553213357925415e-01 2.7068719267845154e-02</leafValues></_>
        <_>
          <internalNodes>
            0 -1 390 5.1283166976645589e-04</internalNodes>
          <leafValues>
            -4.7200921922922134e-02 6.0586506128311157e-01</leafValues></_>
        <_>
          <internalNodes>
            0 -1 458 -5.0895046442747116e-02</internalNodes>
          <leafValues>
            -7.9173648357391357e-01 2.6298955082893372e-02</leafValues></_>
        <_>
          <internalNodes>
            0 -1 720 1.8532574176788330e-04</internalNodes>
          <leafValues>
            -2.9302738606929779e-02 6.0846590995788574e-01</leafValues></_>
        <_>
          <internalNodes>
            0 -1 367 -1.3100676238536835e-02</internalNodes>
          <leafValues>
            -5.9292489290237427e-01 4.0218774229288101e-02</leafValues></_>
        <_>
          <internalNodes>
            0 -1 650 9.9946926638949662e-05</internalNodes>
          <leafValues>
            -3.2232142984867096e-02 6.1684715747833252e-01</leafValues></_>
        <_>
          <internalNodes>
            0 -1 716 -1.0173304472118616e-03</internalNodes>
          <leafValues>
            -5.7945859432220459e-01 3.2224655151367188e-02</leafValues></_>
        <_>
          <internalNodes>
            0 -1 770 1.0673827637219802e-04</internalNodes>
          <leafValues>
            -2.7812408283352852e-02 6.1640805006027222e-01</leafValues></_>
        <_>
          <internalNodes>
            0 -1 422 8.4200594574213028e-03</internalNodes>
          <leafValues>
            3.5258997231721878e-02 -4.9550399184226990e-01</leafValues></_>
        <_>
          <internalNodes>
            0 -1 691 5.7607470080256462e-04</internalNodes>
          <leafValues>
            -1.7727054655551910e-02 7.9464268684387207e-01</leafValues></_>
        <_>
          <internalNodes>
            0 -1 327 1.5435596928000450e-02</internalNodes>
          <leafValues>
            2.2295458242297173e-02 -6.6963982582092285e-01</leafValues></_>
        <_>
          <internalNodes>
            0 -1 684 -1.8859641859307885e-03</internalNodes>
          <leafValues>
            7.0630103349685669e-01 -2.7569577097892761e-02</leafValues></_>
        <_>
          <internalNodes>
            0 -1 154 -1.0458770208060741e-02</internalNodes>
          <leafValues>
            -5.5620205402374268e-01 2.7002450078725815e-02</leafValues></_>
        <_>
          <internalNodes>
            0 -1 865 4.8877240624278784e-04</internalNodes>
          <leafValues>
            -1.8765034154057503e-02 7.4634659290313721e-01</leafValues></_>
        <_>
          <internalNodes>
            0 -1 508 1.7842549830675125e-02</internalNodes>
          <leafValues>
            1.1642360128462315e-02 -7.7037781476974487e-01</leafValues></_>
        <_>
          <internalNodes>
            0 -1 385 1.6172567848116159e-04</internalNodes>
          <leafValues>
            -1.8813572824001312e-02 6.3037866353988647e-01</leafValues></_>
        <_>
          <internalNodes>
            0 -1 840 2.1947769448161125e-02</internalNodes>
          <leafValues>
            1.0116428136825562e-02 -8.8399338722229004e-01</leafValues></_>
        <_>
          <internalNodes>
            0 -1 717 5.8114784769713879e-04</internalNodes>
          <leafValues>
            -1.3974982313811779e-02 7.1816128492355347e-01</leafValues></_>
        <_>
          <internalNodes>
            0 -1 573 -6.7103087902069092e-02</internalNodes>
          <leafValues>
            -8.2501924037933350e-01 1.7440030351281166e-02</leafValues></_>
        <_>
          <internalNodes>
            0 -1 878 4.6851858496665955e-04</internalNodes>
          <leafValues>
            -1.2024063616991043e-02 7.1252584457397461e-01</leafValues></_>
        <_>
          <internalNodes>
            0 -1 524 5.4374299943447113e-03</internalNodes>
          <leafValues>
            1.5884153544902802e-02 -8.1417471170425415e-01</leafValues></_>
        <_>
          <internalNodes>
            0 -1 574 -4.9396394751966000e-04</internalNodes>
          <leafValues>
            7.2702383995056152e-01 -1.2050344608724117e-02</leafValues></_>
        <_>
          <internalNodes>
            0 -1 298 1.5307733789086342e-02</internalNodes>
          <leafValues>
            2.0501159131526947e-02 -5.3284180164337158e-01</leafValues></_>
        <_>
          <internalNodes>
            0 -1 643 -5.1170615479350090e-03</internalNodes>
          <leafValues>
            9.0988326072692871e-01 -7.2208256460726261e-03</leafValues></_>
        <_>
          <internalNodes>
            0 -1 317 -9.4089945778250694e-03</internalNodes>
          <leafValues>
            8.7221038341522217e-01 -1.5498907305300236e-02</leafValues></_>
        <_>
          <internalNodes>
            0 -1 627 1.7194401152664796e-05</internalNodes>
          <leafValues>
            1.9922224804759026e-02 -6.8061041831970215e-01</leafValues></_>
        <_>
          <internalNodes>
            0 -1 142 -4.4994330964982510e-03</internalNodes>
          <leafValues>
            7.7203828096389771e-01 -6.6784350201487541e-03</leafValues></_>
        <_>
          <internalNodes>
            0 -1 22 -7.9178931191563606e-03</internalNodes>
          <leafValues>
            -8.7369310855865479e-01 6.4058126881718636e-03</leafValues></_>
        <_>
          <internalNodes>
            0 -1 434 1.0160394595004618e-04</internalNodes>
          <leafValues>
            -4.7448105178773403e-03 8.6175411939620972e-01</leafValues></_>
        <_>
          <internalNodes>
            0 -1 434 1.9060515114688314e-05</internalNodes>
          <leafValues>
            2.9581552371382713e-03 -9.3301832675933838e-01</leafValues></_>
        <_>
          <internalNodes>
            0 -1 434 2.3438355128746480e-05</internalNodes>
          <leafValues>
            8.6286817690961470e-09 9.2051023244857788e-01</leafValues></_>
        <_>
          <internalNodes>
            0 -1 434 1.9060515114688314e-05</internalNodes>
          <leafValues>
            -2.9833140433765948e-04 -9.3137973546981812e-01</leafValues></_>
        <_>
          <internalNodes>
            0 -1 434 2.3438355128746480e-05</internalNodes>
          <leafValues>
            -8.8441615142542673e-12 9.3931508064270020e-01</leafValues></_>
        <_>
          <internalNodes>
            0 -1 434 1.9060515114688314e-05</internalNodes>
          <leafValues>
            -6.5300806516949920e-15 -9.3242371082305908e-01</leafValues></_>
        <_>
          <internalNodes>
            0 -1 434 2.3438355128746480e-05</internalNodes>
          <leafValues>
            2.9833140433765948e-04 9.2111533880233765e-01</leafValues></_>
        <_>
          <internalNodes>
            0 -1 434 1.9060515114688314e-05</internalNodes>
          <leafValues>
            -2.9833140433765948e-04 -9.3093132972717285e-01</leafValues></_>
        <_>
          <internalNodes>
            0 -1 434 2.3438355128746480e-05</internalNodes>
          <leafValues>
            -8.8608322068584044e-12 9.4019013643264771e-01</leafValues></_>
        <_>
          <internalNodes>
            0 -1 434 1.9060515114688314e-05</internalNodes>
          <leafValues>
            9.3412254555038255e-16 -9.3215554952621460e-01</leafValues></_>
        <_>
          <internalNodes>
            0 -1 434 2.3438355128746480e-05</internalNodes>
          <leafValues>
            2.9833140433765948e-04 9.2138481140136719e-01</leafValues></_>
        <_>
          <internalNodes>
            0 -1 434 1.9060515114688314e-05</internalNodes>
          <leafValues>
            -2.9833140433765948e-04 -9.3072938919067383e-01</leafValues></_>
        <_>
          <internalNodes>
            0 -1 434 2.3438355128746480e-05</internalNodes>
          <leafValues>
            -8.8462076205941820e-12 9.4034194946289063e-01</leafValues></_>
        <_>
          <internalNodes>
            0 -1 434 1.9060515114688314e-05</internalNodes>
          <leafValues>
            -2.0588749380780289e-15 -9.3200355768203735e-01</leafValues></_>
        <_>
          <internalNodes>
            0 -1 434 2.3438355128746480e-05</internalNodes>
          <leafValues>
            2.9833140433765948e-04 9.2153668403625488e-01</leafValues></_>
        <_>
          <internalNodes>
            0 -1 434 1.9060515114688314e-05</internalNodes>
          <leafValues>
            -2.9833140433765948e-04 -9.3061506748199463e-01</leafValues></_>
        <_>
          <internalNodes>
            0 -1 434 2.3438355128746480e-05</internalNodes>
          <leafValues>
            -8.8576888879199345e-12 9.4042754173278809e-01</leafValues></_>
        <_>
          <internalNodes>
            0 -1 434 1.9060515114688314e-05</internalNodes>
          <leafValues>
            8.6046494162197486e-15 -9.3191754817962646e-01</leafValues></_>
        <_>
          <internalNodes>
            0 -1 434 2.3438355128746480e-05</internalNodes>
          <leafValues>
            2.9833140433765948e-04 9.2162233591079712e-01</leafValues></_>
        <_>
          <internalNodes>
            0 -1 434 1.9060515114688314e-05</internalNodes>
          <leafValues>
            -2.9833140433765948e-04 -9.3055033683776855e-01</leafValues></_>
        <_>
          <internalNodes>
            0 -1 434 2.3438355128746480e-05</internalNodes>
          <leafValues>
            -8.8377100776471096e-12 9.4047588109970093e-01</leafValues></_>
        <_>
          <internalNodes>
            0 -1 434 1.9060515114688314e-05</internalNodes>
          <leafValues>
            4.1619554139425165e-16 -9.3186891078948975e-01</leafValues></_>
        <_>
          <internalNodes>
            0 -1 434 2.3438355128746480e-05</internalNodes>
          <leafValues>
            2.9833140433765948e-04 9.2167067527770996e-01</leafValues></_>
        <_>
          <internalNodes>
            0 -1 434 1.9060515114688314e-05</internalNodes>
          <leafValues>
            -2.9833140433765948e-04 -9.3051379919052124e-01</leafValues></_>
        <_>
          <internalNodes>
            0 -1 434 2.3438355128746480e-05</internalNodes>
          <leafValues>
            -8.8522592034401271e-12 9.4050312042236328e-01</leafValues></_>
        <_>
          <internalNodes>
            0 -1 434 1.9060515114688314e-05</internalNodes>
          <leafValues>
            -2.1915418969582073e-15 -9.3184143304824829e-01</leafValues></_>
        <_>
          <internalNodes>
            0 -1 434 2.3438355128746480e-05</internalNodes>
          <leafValues>
            2.9833140433765948e-04 9.2169797420501709e-01</leafValues></_>
        <_>
          <internalNodes>
            0 -1 434 1.9060515114688314e-05</internalNodes>
          <leafValues>
            -2.9833140433765948e-04 -9.3049311637878418e-01</leafValues></_>
        <_>
          <internalNodes>
            0 -1 434 2.3438355128746480e-05</internalNodes>
          <leafValues>
            -8.8516693974582950e-12 9.4051855802536011e-01</leafValues></_>
        <_>
          <internalNodes>
            0 -1 434 1.9060515114688314e-05</internalNodes>
          <leafValues>
            -2.4117420876405924e-15 -9.3182587623596191e-01</leafValues></_>
        <_>
          <internalNodes>
            0 -1 434 2.3438355128746480e-05</internalNodes>
          <leafValues>
            2.9833140433765948e-04 9.2171341180801392e-01</leafValues></_></weakClassifiers></_>
    <!-- stage 13 -->
    <_>
      <maxWeakCount>100</maxWeakCount>
      <stageThreshold>-1.8931373357772827e+00</stageThreshold>
      <weakClassifiers>
        <_>
          <internalNodes>
            0 -1 748 7.3365774005651474e-04</internalNodes>
          <leafValues>
            -5.7126826047897339e-01 2.5000000000000000e-01</leafValues></_>
        <_>
          <internalNodes>
            0 -1 60 -2.6019599317805842e-05</internalNodes>
          <leafValues>
            3.6649438738822937e-01 -3.0618181824684143e-01</leafValues></_>
        <_>
          <internalNodes>
            0 -1 614 1.0958500206470490e-03</internalNodes>
          <leafValues>
            -2.0737423002719879e-01 4.5849421620368958e-01</leafValues></_>
        <_>
          <internalNodes>
            0 -1 775 -2.2324464225675911e-05</internalNodes>
          <leafValues>
            3.7040764093399048e-01 -2.0272187888622284e-01</leafValues></_>
        <_>
          <internalNodes>
            0 -1 411 1.8328517675399780e-02</internalNodes>
          <leafValues>
            -1.5453067421913147e-01 4.8595911264419556e-01</leafValues></_>
        <_>
          <internalNodes>
            0 -1 801 3.5066388081759214e-03</internalNodes>
          <leafValues>
            -1.5605659782886505e-01 3.3551147580146790e-01</leafValues></_>
        <_>
          <internalNodes>
            0 -1 828 7.1439191699028015e-02</internalNodes>
          <leafValues>
            -6.8401165306568146e-02 7.2356325387954712e-01</leafValues></_>
        <_>
          <internalNodes>
            0 -1 228 8.5039567202329636e-03</internalNodes>
          <leafValues>
            8.4736473858356476e-02 -6.3458651304244995e-01</leafValues></_>
        <_>
          <internalNodes>
            0 -1 153 2.0836484618484974e-03</internalNodes>
          <leafValues>
            -1.2559396028518677e-01 3.8486772775650024e-01</leafValues></_>
        <_>
          <internalNodes>
            0 -1 667 6.2158814398571849e-04</internalNodes>
          <leafValues>
            -1.4089703559875488e-01 3.1057721376419067e-01</leafValues></_>
        <_>
          <internalNodes>
            0 -1 755 7.5056770583614707e-04</internalNodes>
          <leafValues>
            1.0985282063484192e-01 -4.2642986774444580e-01</leafValues></_>
        <_>
          <internalNodes>
            0 -1 376 9.8591158166527748e-03</internalNodes>
          <leafValues>
            -8.4568813443183899e-02 5.3724330663681030e-01</leafValues></_>
        <_>
          <internalNodes>
            0 -1 230 4.1871488792821765e-04</internalNodes>
          <leafValues>
            9.3180991709232330e-02 -4.9658250808715820e-01</leafValues></_>
        <_>
          <internalNodes>
            0 -1 576 9.3984958948567510e-04</internalNodes>
          <leafValues>
            -1.4843146502971649e-01 3.1673091650009155e-01</leafValues></_>
        <_>
          <internalNodes>
            0 -1 229 -5.9820036403834820e-04</internalNodes>
          <leafValues>
            -6.0578793287277222e-01 6.8515278398990631e-02</leafValues></_>
        <_>
          <internalNodes>
            0 -1 764 1.8569557869341224e-04</internalNodes>
          <leafValues>
            -1.7919281125068665e-01 2.5656005740165710e-01</leafValues></_>
        <_>
          <internalNodes>
            0 -1 767 4.5283600687980652e-02</internalNodes>
          <leafValues>
            5.9512190520763397e-02 -7.3048603534698486e-01</leafValues></_>
        <_>
          <internalNodes>
            0 -1 856 8.4743676707148552e-03</internalNodes>
          <leafValues>
            -8.9046023786067963e-02 4.3608936667442322e-01</leafValues></_>
        <_>
          <internalNodes>
            0 -1 457 8.7431035935878754e-03</internalNodes>
          <leafValues>
            7.8662253916263580e-02 -5.2254259586334229e-01</leafValues></_>
        <_>
          <internalNodes>
            0 -1 407 -2.7588478405959904e-04</internalNodes>
          <leafValues>
            3.3724966645240784e-01 -1.1867000907659531e-01</leafValues></_>
        <_>
          <internalNodes>
            0 -1 673 -1.6089983284473419e-02</internalNodes>
          <leafValues>
            -3.8436692953109741e-01 1.1902423202991486e-01</leafValues></_>
        <_>
          <internalNodes>
            0 -1 148 3.9727315306663513e-02</internalNodes>
          <leafValues>
            4.4787298887968063e-02 -8.0027979612350464e-01</leafValues></_>
        <_>
          <internalNodes>
            0 -1 79 1.0399289429187775e-02</internalNodes>
          <leafValues>
            6.9601267576217651e-02 -4.5067864656448364e-01</leafValues></_>
        <_>
          <internalNodes>
            0 -1 431 -1.3713284861296415e-03</internalNodes>
          <leafValues>
            2.4282564222812653e-01 -1.6316314041614532e-01</leafValues></_>
        <_>
          <internalNodes>
            0 -1 294 8.5162483155727386e-03</internalNodes>
          <leafValues>
            6.9140367209911346e-02 -5.1818615198135376e-01</leafValues></_>
        <_>
          <internalNodes>
            0 -1 674 -1.7598221893422306e-04</internalNodes>
          <leafValues>
            3.2356473803520203e-01 -1.1915352940559387e-01</leafValues></_>
        <_>
          <internalNodes>
            0 -1 175 3.1867239624261856e-02</internalNodes>
          <leafValues>
            4.3432533740997314e-02 -9.1122114658355713e-01</leafValues></_>
        <_>
          <internalNodes>
            0 -1 282 2.0669009536504745e-02</internalNodes>
          <leafValues>
            -5.1520947366952896e-02 7.6445430517196655e-01</leafValues></_>
        <_>
          <internalNodes>
            0 -1 98 -1.3766366988420486e-02</internalNodes>
          <leafValues>
            2.8347539901733398e-01 -1.1708690226078033e-01</leafValues></_>
        <_>
          <internalNodes>
            0 -1 5 2.0879139192402363e-03</internalNodes>
          <leafValues>
            1.1825005710124969e-01 -3.2168519496917725e-01</leafValues></_>
        <_>
          <internalNodes>
            0 -1 310 5.8753158897161484e-02</internalNodes>
          <leafValues>
            3.9849422872066498e-02 -8.0457925796508789e-01</leafValues></_>
        <_>
          <internalNodes>
            0 -1 366 4.0049143135547638e-02</internalNodes>
          <leafValues>
            6.4952276647090912e-02 -4.9052813649177551e-01</leafValues></_>
        <_>
          <internalNodes>
            0 -1 914 8.2655893638730049e-03</internalNodes>
          <leafValues>
            4.7055006027221680e-02 -6.5052473545074463e-01</leafValues></_>
        <_>
          <internalNodes>
            0 -1 649 -8.0542138312011957e-04</internalNodes>
          <leafValues>
            3.4633523225784302e-01 -1.0796842724084854e-01</leafValues></_>
        <_>
          <internalNodes>
            0 -1 739 -4.8960167914628983e-03</internalNodes>
          <leafValues>
            -7.7436161041259766e-01 4.2208328843116760e-02</leafValues></_>
        <_>
          <internalNodes>
            0 -1 355 -2.5227991864085197e-03</internalNodes>
          <leafValues>
            3.3560267090797424e-01 -1.0166122019290924e-01</leafValues></_>
        <_>
          <internalNodes>
            0 -1 690 -2.3610129952430725e-02</internalNodes>
          <leafValues>
            -5.4998838901519775e-01 5.9738315641880035e-02</leafValues></_>
        <_>
          <internalNodes>
            0 -1 711 1.0010448750108480e-03</internalNodes>
          <leafValues>
            -1.0117517411708832e-01 3.1177404522895813e-01</leafValues></_>
        <_>
          <internalNodes>
            0 -1 654 -2.5074738077819347e-03</internalNodes>
          <leafValues>
            -5.3308165073394775e-01 6.2664777040481567e-02</leafValues></_>
        <_>
          <internalNodes>
            0 -1 0 -1.1372489389032125e-03</internalNodes>
          <leafValues>
            -7.2833853960037231e-01 3.7148699164390564e-02</leafValues></_>
        <_>
          <internalNodes>
            0 -1 695 -3.1378825660794973e-03</internalNodes>
          <leafValues>
            4.2952927947044373e-01 -7.9165883362293243e-02</leafValues></_>
        <_>
          <internalNodes>
            0 -1 54 3.3067488111555576e-03</internalNodes>
          <leafValues>
            5.0650034099817276e-02 -6.2061333656311035e-01</leafValues></_>
        <_>
          <internalNodes>
            0 -1 160 -1.5166921541094780e-02</internalNodes>
          <leafValues>
            8.7657868862152100e-01 -4.2405571788549423e-02</leafValues></_>
        <_>
          <internalNodes>
            0 -1 402 2.6092320680618286e-02</internalNodes>
          <leafValues>
            5.9213269501924515e-02 -5.7056933641433716e-01</leafValues></_>
        <_>
          <internalNodes>
            0 -1 782 -2.8193456819280982e-04</internalNodes>
          <leafValues>
            3.0133357644081116e-01 -1.1521615833044052e-01</leafValues></_>
        <_>
          <internalNodes>
            0 -1 396 1.1432489380240440e-02</internalNodes>
          <leafValues>
            9.4415634870529175e-02 -3.3118200302124023e-01</leafValues></_>
        <_>
          <internalNodes>
            0 -1 550 -4.7274708049371839e-04</internalNodes>
          <leafValues>
            -1.8943807482719421e-01 1.7231401801109314e-01</leafValues></_>
        <_>
          <internalNodes>
            0 -1 216 -1.1426457203924656e-03</internalNodes>
          <leafValues>
            3.8911369442939758e-01 -8.9001089334487915e-02</leafValues></_>
        <_>
          <internalNodes>
            0 -1 943 -5.5126589722931385e-04</internalNodes>
          <leafValues>
            -4.9094134569168091e-01 6.0683682560920715e-02</leafValues></_>
        <_>
          <internalNodes>
            0 -1 736 -1.1806474067270756e-03</internalNodes>
          <leafValues>
            3.0172529816627502e-01 -1.1213266104459763e-01</leafValues></_>
        <_>
          <internalNodes>
            0 -1 253 -2.0814340561628342e-02</internalNodes>
          <leafValues>
            -7.0182627439498901e-01 4.2707938700914383e-02</leafValues></_>
        <_>
          <internalNodes>
            0 -1 839 2.9819095507264137e-03</internalNodes>
          <leafValues>
            3.8956012576818466e-02 -6.4564162492752075e-01</leafValues></_>
        <_>
          <internalNodes>
            0 -1 647 -1.4581208815798163e-03</internalNodes>
          <leafValues>
            4.1137388348579407e-01 -7.6540768146514893e-02</leafValues></_>
        <_>
          <internalNodes>
            0 -1 788 2.9364865622483194e-04</internalNodes>
          <leafValues>
            7.4149198830127716e-02 -3.9954990148544312e-01</leafValues></_>
        <_>
          <internalNodes>
            0 -1 491 2.5797316338866949e-03</internalNodes>
          <leafValues>
            -7.6775714755058289e-02 4.2331612110137939e-01</leafValues></_>
        <_>
          <internalNodes>
            0 -1 101 9.1751571744680405e-03</internalNodes>
          <leafValues>
            4.6323470771312714e-02 -6.7108911275863647e-01</leafValues></_>
        <_>
          <internalNodes>
            0 -1 581 1.8692241981625557e-02</internalNodes>
          <leafValues>
            5.0330270081758499e-02 -4.9517929553985596e-01</leafValues></_>
        <_>
          <internalNodes>
            0 -1 163 6.6162541043013334e-04</internalNodes>
          <leafValues>
            -1.0330782085657120e-01 3.2353496551513672e-01</leafValues></_>
        <_>
          <internalNodes>
            0 -1 821 5.6297536939382553e-02</internalNodes>
          <leafValues>
            6.4305089414119720e-02 -4.2649066448211670e-01</leafValues></_>
        <_>
          <internalNodes>
            0 -1 249 -1.1104425415396690e-02</internalNodes>
          <leafValues>
            4.9334692955017090e-01 -6.0276869684457779e-02</leafValues></_>
        <_>
          <internalNodes>
            0 -1 761 -4.5144176110625267e-03</internalNodes>
          <leafValues>
            -6.7782205343246460e-01 4.2920872569084167e-02</leafValues></_>
        <_>
          <internalNodes>
            0 -1 395 -1.5207750257104635e-03</internalNodes>
          <leafValues>
            4.2218652367591858e-01 -6.4978532493114471e-02</leafValues></_>
        <_>
          <internalNodes>
            0 -1 197 1.5022390522062778e-02</internalNodes>
          <leafValues>
            1.0761225223541260e-01 -2.5576058030128479e-01</leafValues></_>
        <_>
          <internalNodes>
            0 -1 864 -5.8507015637587756e-05</internalNodes>
          <leafValues>
            3.0869945883750916e-01 -8.9610062539577484e-02</leafValues></_>
        <_>
          <internalNodes>
            0 -1 584 -2.0606506615877151e-02</internalNodes>
          <leafValues>
            -3.6025151610374451e-01 8.6439922451972961e-02</leafValues></_>
        <_>
          <internalNodes>
            0 -1 710 -5.8375771914143115e-05</internalNodes>
          <leafValues>
            2.5523191690444946e-01 -1.0528063774108887e-01</leafValues></_>
        <_>
          <internalNodes>
            0 -1 660 -2.7763729449361563e-03</internalNodes>
          <leafValues>
            -3.5621371865272522e-01 8.3320327103137970e-02</leafValues></_>
        <_>
          <internalNodes>
            0 -1 701 -8.3814658224582672e-02</internalNodes>
          <leafValues>
            -8.1870615482330322e-01 3.2079339027404785e-02</leafValues></_>
        <_>
          <internalNodes>
            0 -1 740 -1.0425619548186660e-03</internalNodes>
          <leafValues>
            3.4349462389945984e-01 -8.7114617228507996e-02</leafValues></_>
        <_>
          <internalNodes>
            0 -1 485 2.1480865776538849e-02</internalNodes>
          <leafValues>
            6.8549774587154388e-02 -4.7864389419555664e-01</leafValues></_>
        <_>
          <internalNodes>
            0 -1 100 -1.9455935107544065e-03</internalNodes>
          <leafValues>
            -4.8630684614181519e-01 5.4297201335430145e-02</leafValues></_>
        <_>
          <internalNodes>
            0 -1 168 -1.3877740502357483e-01</internalNodes>
          <leafValues>
            5.1937514543533325e-01 -5.2318938076496124e-02</leafValues></_>
        <_>
          <internalNodes>
            0 -1 173 8.3863595500588417e-03</internalNodes>
          <leafValues>
            4.2257536202669144e-02 -5.4949313402175903e-01</leafValues></_>
        <_>
          <internalNodes>
            0 -1 222 -2.6975983928423375e-05</internalNodes>
          <leafValues>
            3.4425476193428040e-01 -9.2508651316165924e-02</leafValues></_>
        <_>
          <internalNodes>
            0 -1 300 -2.8884511440992355e-02</internalNodes>
          <leafValues>
            -2.8907719254493713e-01 1.0137238353490829e-01</leafValues></_>
        <_>
          <internalNodes>
            0 -1 102 -4.9076013267040253e-02</internalNodes>
          <leafValues>
            3.4718140959739685e-01 -8.1443697214126587e-02</leafValues></_>
        <_>
          <internalNodes>
            0 -1 84 -1.3016840443015099e-02</internalNodes>
          <leafValues>
            -6.6495823860168457e-01 3.2515492290258408e-02</leafValues></_>
        <_>
          <internalNodes>
            0 -1 795 2.8067208826541901e-02</internalNodes>
          <leafValues>
            2.0321259275078773e-02 -9.7774767875671387e-01</leafValues></_>
        <_>
          <internalNodes>
            0 -1 869 -5.0571910105645657e-04</internalNodes>
          <leafValues>
            2.9324445128440857e-01 -8.3236180245876312e-02</leafValues></_>
        <_>
          <internalNodes>
            0 -1 344 1.0161875747144222e-02</internalNodes>
          <leafValues>
            5.4130140691995621e-02 -5.1531249284744263e-01</leafValues></_>
        <_>
          <internalNodes>
            0 -1 313 2.5242636183975264e-05</internalNodes>
          <leafValues>
            -7.8238300979137421e-02 2.8272482752799988e-01</leafValues></_>
        <_>
          <internalNodes>
            0 -1 443 -2.7059391868533567e-05</internalNodes>
          <leafValues>
            -2.4109980463981628e-01 1.2929508090019226e-01</leafValues></_>
        <_>
          <internalNodes>
            0 -1 484 8.1855207681655884e-03</internalNodes>
          <leafValues>
            -2.8929313644766808e-02 6.6806387901306152e-01</leafValues></_>
        <_>
          <internalNodes>
            0 -1 490 -1.3363856123760343e-04</internalNodes>
          <leafValues>
            -2.7044999599456787e-01 8.6114786565303802e-02</leafValues></_>
        <_>
          <internalNodes>
            0 -1 64 1.4902416296536103e-05</internalNodes>
          <leafValues>
            -9.6679128706455231e-02 3.1772461533546448e-01</leafValues></_>
        <_>
          <internalNodes>
            0 -1 230 1.1355436872690916e-03</internalNodes>
          <leafValues>
            2.6231275871396065e-02 -6.4268261194229126e-01</leafValues></_>
        <_>
          <internalNodes>
            0 -1 757 1.0428132116794586e-01</internalNodes>
          <leafValues>
            2.0338449627161026e-02 -9.3985158205032349e-01</leafValues></_>
        <_>
          <internalNodes>
            0 -1 412 1.3553324155509472e-02</internalNodes>
          <leafValues>
            1.6324238851666451e-02 -8.9978229999542236e-01</leafValues></_>
        <_>
          <internalNodes>
            0 -1 250 -1.6554039902985096e-03</internalNodes>
          <leafValues>
            3.6434635519981384e-01 -6.3853658735752106e-02</leafValues></_>
        <_>
          <internalNodes>
            0 -1 203 -4.7668119077570736e-04</internalNodes>
          <leafValues>
            -2.6162067055702209e-01 8.8270075619220734e-02</leafValues></_>
        <_>
